{"learner":{"attributes":{"scikit_learn":"{\"_estimator_type\": \"classifier\"}"},"feature_names":[],"feature_types":[],"gradient_booster":{"model":{"gbtree_model_param":{"num_parallel_tree":"1","num_trees":"100"},"iteration_indptr":[0,1,2,3,4,5,6,7,8,9,10,11,12,13,14,15,16,17,18,19,20,21,22,23,24,25,26,27,28,29,30,31,32,33,34,35,36,37,38,39,40,41,42,43,44,45,46,47,48,49,50,51,52,53,54,55,56,57,58,59,60,61,62,63,64,65,66,67,68,69,70,71,72,73,74,75,76,77,78,79,80,81,82,83,84,85,86,87,88,89,90,91,92,93,94,95,96,97,98,99,100],"tree_info":[0,0,0,0,0,0,0,0,0,0,0,0,0,0,0,0,0,0,0,0,0,0,0,0,0,0,0,0,0,0,0,0,0,0,0,0,0,0,0,0,0,0,0,0,0,0,0,0,0,0,0,0,0,0,0,0,0,0,0,0,0,0,0,0,0,0,0,0,0,0,0,0,0,0,0,0,0,0,0,0,0,0,0,0,0,0,0,0,0,0,0,0,0,0,0,0,0,0,0,0],"trees":[{"base_weights":[2.034808E-3,-2.2354329E-1,7.656102E-1,1.0557439E-1,-5.378344E-1,-1.3107783E0,1.0777459E0,7.6956135E-1,-1.2685056E-1,-1.3927537E0,-4.2025435E-1,9.1235355E-2,-1.3629549E0,2.4054013E-1,1.1667416E0,9.7293425E-1,1.3164542E-2,3.369511E-1,-2.8685692E-1,-3.761274E-1,-1.5641044E0,6.0268444E-1,-4.9803093E-1,7.3194206E-1,-3.0147243E-1,-1.4425616E0,-1.0052979E0,7.761466E-1,1.4616534E-1,-3.03781E-1,1.2088474E0,-3.5307336E-1,1.0095291E0,-7.2676605E-1,1.0497194E-1,6.1144304E-1,-5.668255E-2,-3.73968E-1,5.8860385E-1,-1.1870681E0,4.086774E-2,-1.9766661E0,-1.2774924E0,7.349285E-1,-5.8913016E-1,-5.840489E-1,4.1483375E-1,9.968188E-1,-0E0,-1.6896151E-2,-1.0487705E0,-1.1066557E0,-1.5180945E0,-4.20528E-2,-1.0544878E0,5.720378E-3,1.2329551E0,-1.355459E0,1.896564E-1,9.274739E-1,-9.887211E-1,1.25174E0,5.311931E-1,4.0477538E-1,-6.624579E-1,1.2301497E0,8.312686E-1,-1.2004403E0,-5.4154766E-1,-1.05644494E-1,4.429203E-1,-3.281154E-1,6.978649E-1,-9.8205155E-1,5.2409854E-2,-1.0850666E0,-2.8705108E-1,2.0678422E-1,7.167146E-1,-1.5219604E0,-8.1119156E-1,8.0467755E-1,-1.8934147E-1,-2.1788564E0,-1.7739855E0,-8.761171E-1,-1.620023E0,8.823919E-1,2.2090131E-1,-1.1062646E0,9.261176E-2,-1.3212414E0,-5.1623E-1,-2.638764E-2,5.6182915E-1,1.0565166E0,-3.055319E-2,-1.323801E-1,2.702898E-1,5.708421E-1,-2.4372831E-1,-3.9963624E-1,-1.5448684E0,-8.622738E-1,-1.2682012E0,-1.1163031E0,-1.5695895E0,2.2160691E-1,-1.5340842E-1,-9.820837E-1,-1.4912523E0,6.7862165E-1,-7.531578E-1,1.2869925E0,-9.849998E-1,-1.390273E0,1.3661454E-2,-1.6935895E-1,2.8333598E-1,1.1406875E0,1.446075E-1,-3.3443406E-1,-1.9111688E0,9.725142E-1,1.2826574E0,-8.931187E-1,9.716231E-1,9.5264596E-1,1.2620137E-2,-2.37682E-1,-1.1995418E0,4.2014095E-1,1.2653466E0,9.553073E-1,5.8089995E-1,-6.6868377E-1,-1.499809E0,-1.0939767E0,-4.5579436E-1,1.6705495E-1,-2.7440998E-1,3.3223674E-1,8.613537E-1,-1.0847405E0,-1.2849782E-1,9.339792E-1,5.117448E-1,-1.4854051E0,-7.855033E-1,-2.3271856E-1,5.255364E-1,-1.5324517E0,-9.225913E-1,-4.5567766E-1,4.687992E-2,-2.4593098E-1,3.2399717E-1,4.2537183E-1,8.132605E-1,-1.5470678E0,-1.24209605E-1,-1.3885766E0,-3.6773595E-1,1.0521374E0,4.013236E-1,-5.180099E-1,2.5499517E-1,-2.1816385E0,1.3661454E-2,-2.1366324E0,-1.5406848E0,-1.266099E0,-3.9556774E-1,-1.895452E0,-1.2863652E0,-5.977178E-1,9.2271066E-1,-4.244639E-1,5.049712E-1,-1.6667367E0,-8.273836E-1,3.4899813E-1,-3.973519E-1,-1.5491538E0,-1.1810586E0,-7.075056E-1,-1.7713776E-1,-2.3974167E-1,2.0461461E-1,2.4253415E-1,6.5574056E-1,4.6089587E-1,1.2731961E0,-8.271627E-1,6.419909E-1,9.5176953E-1,-3.9298654E-1,-1.3808134E-1,-7.011629E-2,3.0398542E-1,-8.5321623E-1,-4.2812854E-1,-1.7359161E0,7.5662065E-1,-9.1156536E-1,-1.9700584E0,-1.174615E0,-7.5768286E-1,-1.177921E0,-1.9108802E0,-1.53263E0,-3.977411E-1,6.184888E-1,-2.3685087E-1,-1.0314126E0,-1.8509796E0,-1.0568333E0,9.699563E-1,-4.509224E-2,-9.149763E-1,-1.4988211E-1,1.3291975E0,2.155351E-1,-1.4655982E-1,4.7456216E-2,-1.5169404E0,-7.624856E-1,-1.1783829E0,-2.3743596E-2,8.9718986E-1,2.4736457E-1,2.4297882E-2,1.3305002E0,-9.6632564E-1,7.2670704E-1,-6.803508E-1,5.2603316E-1,-2.119013E0,-1.365437E0,1.36201E0,8.9526755E-1,1.3064948E0,9.8576325E-1,-1.3577783E0,-3.3078846E-1,6.259309E-1,1.1460308E0,-3.2186106E-2,1.13471165E-1,-2.3685088E-2,7.81762E-2,-6.7220375E-2,2.199588E-2,-6.425502E-2,-1.3595864E-1,6.581756E-2,-1.1246758E-1,1.3032353E-1,9.1713354E-2,-4.4409987E-2,9.841271E-2,-5.366953E-3,7.782217E-2,-1.12398826E-1,3.243534E-2,6.9910423E-3,-1.585778E-1,6.9910423E-3,-1.21860184E-1,-1.90212E-2,-7.196247E-2,-6.1495144E-2,3.148326E-2,-2.5360955E-2,-1.07423104E-1,7.466463E-2,2.4092833E-2,9.358631E-2,9.76159E-3,-1.323185E-1,-6.2576085E-2,5.042074E-2,-3.6846593E-2,5.4559197E-2,1.0141335E-1,4.5723572E-2,1.0089071E-1,-6.176849E-2,-1.550814E-1,1.6881496E-2,-8.398198E-2,-6.757682E-2,-8.165474E-3,4.012673E-2,1.0353818E-1,-1.5645415E-1,-7.049345E-2,-9.847445E-2,-4.8756044E-2,-5.3292077E-2,-1.8191248E-2,-2.9212622E-2,1.6062675E-2,-4.3448927E-3,-8.908216E-2,1.3610159E-2,5.6178987E-2,5.4002203E-2,-1.9964392E-3,5.9501834E-2,9.131982E-2,-1.6492385E-1,-1.0695281E-1,4.7456216E-2,-5.811563E-2,-1.7949001E-1,-6.269067E-2,-1.0954708E-1,-1.5618969E-3,-5.307869E-2,1.11100495E-1,-2.9797971E-2,8.3526775E-2,-7.147049E-2,-8.484482E-3,-1.2224843E-1,6.014219E-2,-2.270995E-1,-2.0650509E-1,-2.1633354E-1,-1.2690692E-1,-1.1510086E-1,-1.930258E-1,-1.3217734E-1,2.1912977E-2,-1.3998905E-1,-7.7802263E-4,-1.926531E-1,-5.0365966E-2,-1.6417585E-1,-9.5297515E-2,7.363964E-2,-1.00803666E-1,9.887252E-2,3.3344515E-2,-7.285513E-2,-3.6500592E-3,-3.5091408E-2,5.6221902E-2,3.571629E-2,-1.753669E-1,-5.2602984E-2,-1.4943194E-1,-6.565843E-3,6.628821E-2,-9.2012465E-2,-1.4494652E-2,-1.7034127E-1,-1.4718686E-1,-1.3508408E-1,-1.0426132E-1,-1.00587346E-1,-6.439536E-2,-7.0483215E-2,-4.1814963E-3,-1.6099691E-2,-9.18984E-2,5.2430715E-2,3.1003747E-3,3.1434536E-2,-5.118811E-2,5.6585956E-2,7.840484E-2,8.050472E-2,-5.307869E-2,4.933915E-2,1.4011542E-1,-0E0,-1.1233737E-1,1.00881435E-1,2.343147E-2,1.1643151E-1,-7.3984773E-3,-6.486431E-2,3.6337335E-2,1.9374106E-2,-7.765364E-2,-5.811563E-2,9.280494E-2,-1.17022514E-1,1.8756654E-3,-9.301003E-2,3.6337335E-2,-0E0,-1.9197093E-1,-1.6282743E-2,1.0573293E-1,-1.183251E-2,-9.864274E-2,-2.9939888E-2,-2.0029758E-1,4.517898E-5,-1.1978387E-1,-8.561512E-2,1.960399E-2,-1.24478E-1,-8.030995E-2,-3.1004762E-2,-1.9224086E-1,-1.0676938E-1,-1.5619259E-1,-7.180213E-2,7.817795E-2,8.917594E-2,-4.061954E-2,2.4581466E-2,-6.985625E-2,-4.8769426E-2,-1.0843618E-1,-1.33743575E-2,-1.8898664E-1,7.0586116E-3,-1.22551024E-1,5.075502E-3,1.1048277E-1,3.1642865E-2,-1.0288604E-1,-1.1436107E-1,-3.0850673E-2,4.9835425E-2,-9.205385E-2,1.3646503E-1,3.4981046E-2,-6.753054E-2,7.927081E-2,-4.061954E-2,-1.5948558E-1,-4.234947E-3,-1.16818644E-1,2.155351E-2,-1.465966E-1,1.6106999E-2,-3.247953E-2,-5.8918625E-2,9.941044E-2,1.2189317E-2,4.576029E-2,9.1657154E-2,-6.888702E-2,1.4189456E-1,8.241867E-2,4.80337E-2,-1.971502E-1,9.710071E-2,-5.1751494E-2,-1.2230498E-2,-1.1226871E-1,-6.223562E-2,7.951464E-2,-2.1896778E-1,-1.4014764E-1,-4.584772E-2,-1.5266678E-1,8.373666E-2,1.5865569E-1,-5.9789207E-2,9.380758E-2,1.3463823E-1,1.1611825E-1,1.1839169E-1,7.365584E-2,-1.7349553E-1,-1.0755582E-1,-5.1610775E-2,2.3563253E-2,8.9128606E-2,4.5072284E-2,1.2038195E-1,7.1146615E-2],"categories":[],"categories_nodes":[],"categories_segments":[],"categories_sizes":[],"default_left":[0,0,0,0,0,0,0,0,0,0,0,0,0,0,0,0,0,0,0,0,0,0,0,0,0,0,0,0,0,0,0,0,0,0,0,0,0,0,0,0,0,0,0,0,0,0,0,0,0,0,0,0,0,0,0,0,0,0,0,0,0,0,0,0,0,0,0,0,0,0,0,0,0,0,0,0,0,0,0,0,0,0,0,0,0,0,0,0,0,0,0,0,0,0,0,0,0,0,0,0,0,0,0,0,0,0,0,0,0,0,0,0,0,0,0,0,0,0,0,0,0,0,0,0,0,0,0,0,0,0,0,0,0,0,0,0,0,0,0,0,0,0,0,0,0,0,0,0,0,0,0,0,0,0,0,0,0,0,0,0,0,0,0,0,0,0,0,0,0,0,0,0,0,0,0,0,0,0,0,0,0,0,0,0,0,0,0,0,0,0,0,0,0,0,0,0,0,0,0,0,0,0,0,0,0,0,0,0,0,0,0,0,0,0,0,0,0,0,0,0,0,0,0,0,0,0,0,0,0,0,0,0,0,0,0,0,0,0,0,0,0,0,0,0,0,0,0,0,0,0,0,0,0,0,0,0,0,0,0,0,0,0,0,0,0,0,0,0,0,0,0,0,0,0,0,0,0,0,0,0,0,0,0,0,0,0,0,0,0,0,0,0,0,0,0,0,0,0,0,0,0,0,0,0,0,0,0,0,0,0,0,0,0,0,0,0,0,0,0,0,0,0,0,0,0,0,0,0,0,0,0,0,0,0,0,0,0,0,0,0,0,0,0,0,0,0,0,0,0,0,0,0,0,0,0,0,0,0,0,0,0,0,0,0,0,0,0,0,0,0,0,0,0,0,0,0,0,0,0,0,0,0,0,0,0,0,0,0,0,0,0,0,0,0,0,0,0,0,0,0,0,0,0,0,0,0,0,0,0,0,0,0,0,0,0,0,0,0,0,0,0,0,0,0,0,0,0,0,0,0,0,0,0,0,0,0,0,0,0,0,0,0,0,0,0,0,0,0,0,0,0,0,0,0,0,0,0,0,0,0,0,0,0,0,0,0,0,0,0,0,0,0,0,0,0,0,0,0,0],"id":0,"left_children":[1,3,5,7,9,11,13,15,17,19,21,23,25,27,29,31,33,35,37,39,41,43,45,47,49,51,53,55,57,59,61,63,65,67,69,71,73,75,77,79,81,83,85,87,89,91,93,95,97,99,101,103,105,107,109,111,113,115,117,119,121,123,125,127,129,131,133,135,137,139,141,143,145,147,149,151,153,155,157,159,161,163,165,167,169,171,173,175,177,179,181,183,185,187,189,191,-1,-1,193,195,197,199,201,203,205,207,209,211,-1,213,215,217,219,221,223,225,-1,227,229,231,233,235,237,239,241,243,245,247,249,251,253,255,257,259,261,263,265,267,269,271,273,275,277,279,281,283,285,287,289,291,293,295,297,299,301,303,305,307,309,311,313,315,317,319,321,323,325,327,-1,329,331,333,335,337,339,341,343,345,347,349,351,353,355,357,359,361,363,365,367,369,371,373,375,377,379,381,383,-1,385,387,389,391,393,395,397,399,401,403,405,407,409,411,413,415,417,419,421,423,425,427,429,431,433,-1,-1,435,437,439,441,443,445,447,449,451,453,455,457,459,461,463,465,467,469,471,473,475,477,-1,-1,-1,-1,-1,-1,-1,-1,-1,-1,-1,-1,-1,-1,-1,-1,-1,-1,-1,-1,-1,-1,-1,-1,-1,-1,-1,-1,-1,-1,-1,-1,-1,-1,-1,-1,-1,-1,-1,-1,-1,-1,-1,-1,-1,-1,-1,-1,-1,-1,-1,-1,-1,-1,-1,-1,-1,-1,-1,-1,-1,-1,-1,-1,-1,-1,-1,-1,-1,-1,-1,-1,-1,-1,-1,-1,-1,-1,-1,-1,-1,-1,-1,-1,-1,-1,-1,-1,-1,-1,-1,-1,-1,-1,-1,-1,-1,-1,-1,-1,-1,-1,-1,-1,-1,-1,-1,-1,-1,-1,-1,-1,-1,-1,-1,-1,-1,-1,-1,-1,-1,-1,-1,-1,-1,-1,-1,-1,-1,-1,-1,-1,-1,-1,-1,-1,-1,-1,-1,-1,-1,-1,-1,-1,-1,-1,-1,-1,-1,-1,-1,-1,-1,-1,-1,-1,-1,-1,-1,-1,-1,-1,-1,-1,-1,-1,-1,-1,-1,-1,-1,-1,-1,-1,-1,-1,-1,-1,-1,-1,-1,-1,-1,-1,-1,-1,-1,-1,-1,-1,-1,-1,-1,-1,-1,-1,-1,-1,-1,-1,-1,-1,-1,-1,-1,-1,-1,-1,-1,-1,-1,-1,-1,-1,-1,-1,-1,-1,-1,-1,-1,-1,-1,-1,-1,-1,-1,-1,-1,-1,-1,-1],"loss_changes":[2.7402941E4,1.270349E4,2.3516494E4,9.2585E3,6.3137617E3,3.4719678E2,2.3494766E3,2.3927305E3,3.2979175E3,1.3218965E3,4.394382E3,4.3519688E1,1.2775195E2,1.5303134E2,1.7658789E3,5.9546484E2,2.2406937E2,1.231737E3,2.520051E3,3.7130972E2,7.6431445E2,6.1581226E2,4.0306484E3,1.2686295E1,2.2681433E1,9.2004395E1,3.950763E1,1.5957532E2,1.687846E2,6.716063E2,8.044414E2,7.786528E1,4.674463E2,3.0791763E1,2.0901974E2,5.457085E2,4.7305194E2,1.8567661E3,1.4597034E2,4.4845337E1,1.279744E2,1.0285742E2,5.2542236E2,2.6595105E2,1.3795375E2,2.3439336E3,2.8679028E2,4.305893E0,7.2844296E0,1.0750146E1,8.368172E0,2.545111E1,6.0121094E1,1.7302406E1,2.2749573E1,8.7827736E1,3.606534E1,4.1892395E0,8.447046E1,4.7161636E1,3.074904E2,2.2292578E2,1.0380298E3,2.0635822E1,5.3084778E1,1.5094043E2,2.0408594E2,1.4350403E1,1.16325E1,8.334518E1,5.1665024E1,8.525157E1,2.6944165E2,4.6912445E1,5.6566925E2,2.3550269E2,1.5080701E3,4.0118233E1,6.232019E1,6.398773E0,4.48946E1,1.6045914E1,8.1874466E1,9.189941E0,1.07833496E2,3.3099097E2,1.862041E2,1.6376978E2,1.443325E2,3.2428833E1,2.1530409E1,1.2320264E2,2.7859678E3,5.4586197E1,9.910925E1,4.9459343E0,0E0,0E0,7.738472E0,8.84579E0,1.1239013E1,5.1911545E0,2.101696E0,2.3407516E1,2.3338623E1,6.233307E0,2.9268555E1,9.546545E0,0E0,2.4797852E1,1.3995895E1,1.939347E1,7.573101E0,1.2019684E1,6.4589972E0,3.706131E0,0E0,7.6232994E1,4.3508667E1,4.718042E1,4.162731E1,9.017146E1,1.9340393E1,7.632007E1,1.6388281E2,1.013392E2,7.489966E1,9.949051E0,1.1445102E1,2.6774324E1,7.7058716E0,8.35236E1,6.534277E1,1.7869482E2,2.7457477E2,1.8346788E1,8.8554535E0,5.2219696E0,1.5944565E1,8.0270996E1,1.8064857E1,3.3466667E1,1.311554E1,1.147496E1,6.86116E1,8.335474E1,9.2469666E1,6.1189575E0,1.8874176E1,1.7494986E2,9.913449E1,2.1204956E1,6.414795E1,3.7608398E2,3.466033E2,2.0175934E1,2.6599628E1,2.868892E1,3.566284E1,6.433502E0,1.8327689E0,2.1939514E1,2.6356556E1,1.0576721E1,2.0658764E1,2.7264107E1,1.2316218E2,6.3237305E0,0E0,7.572754E0,1.2073364E2,8.132092E1,3.097405E2,4.719409E1,1.0884424E2,4.123094E1,1.0277612E2,2.8289825E1,2.707991E1,1.379335E1,2.9075485E1,1.4752621E1,7.4638624E0,1.3798096E1,5.530005E1,5.196416E2,1.1063496E3,3.0471748E1,2.9425955E1,4.119502E1,2.8738525E1,5.744897E0,2.0776062E0,1.2992468E0,1.5637026E0,3.852295E0,1.8006564E0,0E0,1.003668E1,4.627433E0,2.780921E0,2.3189864E0,4.369396E0,2.8466744E0,1.5904648E1,1.4133453E0,1.016861E1,5.57407E0,5.737488E0,3.6269531E0,3.0473633E1,6.6386075E0,7.140235E0,1.0283245E1,1.7609863E1,3.3022614E0,1.0426743E1,7.8848343E0,1.0346976E1,8.098015E0,1.0226357E1,8.410126E0,7.2124176E0,0E0,0E0,3.8194275E0,4.2215204E0,2.6837578E1,2.5465439E1,1.668821E1,4.952157E1,2.2659676E1,6.571594E0,3.3807697E1,1.35989895E1,5.2862503E1,2.76766E1,2.671997E0,7.931816E0,4.818921E1,1.401167E2,1.2325781E2,8.4924194E1,1.9651276E1,1.9001583E1,1.911792E1,1.955664E1,0E0,0E0,0E0,0E0,0E0,0E0,0E0,0E0,0E0,0E0,0E0,0E0,0E0,0E0,0E0,0E0,0E0,0E0,0E0,0E0,0E0,0E0,0E0,0E0,0E0,0E0,0E0,0E0,0E0,0E0,0E0,0E0,0E0,0E0,0E0,0E0,0E0,0E0,0E0,0E0,0E0,0E0,0E0,0E0,0E0,0E0,0E0,0E0,0E0,0E0,0E0,0E0,0E0,0E0,0E0,0E0,0E0,0E0,0E0,0E0,0E0,0E0,0E0,0E0,0E0,0E0,0E0,0E0,0E0,0E0,0E0,0E0,0E0,0E0,0E0,0E0,0E0,0E0,0E0,0E0,0E0,0E0,0E0,0E0,0E0,0E0,0E0,0E0,0E0,0E0,0E0,0E0,0E0,0E0,0E0,0E0,0E0,0E0,0E0,0E0,0E0,0E0,0E0,0E0,0E0,0E0,0E0,0E0,0E0,0E0,0E0,0E0,0E0,0E0,0E0,0E0,0E0,0E0,0E0,0E0,0E0,0E0,0E0,0E0,0E0,0E0,0E0,0E0,0E0,0E0,0E0,0E0,0E0,0E0,0E0,0E0,0E0,0E0,0E0,0E0,0E0,0E0,0E0,0E0,0E0,0E0,0E0,0E0,0E0,0E0,0E0,0E0,0E0,0E0,0E0,0E0,0E0,0E0,0E0,0E0,0E0,0E0,0E0,0E0,0E0,0E0,0E0,0E0,0E0,0E0,0E0,0E0,0E0,0E0,0E0,0E0,0E0,0E0,0E0,0E0,0E0,0E0,0E0,0E0,0E0,0E0,0E0,0E0,0E0,0E0,0E0,0E0,0E0,0E0,0E0,0E0,0E0,0E0,0E0,0E0,0E0,0E0,0E0,0E0,0E0,0E0,0E0,0E0,0E0,0E0,0E0,0E0,0E0,0E0,0E0,0E0,0E0,0E0,0E0,0E0,0E0,0E0,0E0,0E0,0E0,0E0,0E0,0E0,0E0,0E0,0E0,0E0],"parents":[2147483647,0,0,1,1,2,2,3,3,4,4,5,5,6,6,7,7,8,8,9,9,10,10,11,11,12,12,13,13,14,14,15,15,16,16,17,17,18,18,19,19,20,20,21,21,22,22,23,23,24,24,25,25,26,26,27,27,28,28,29,29,30,30,31,31,32,32,33,33,34,34,35,35,36,36,37,37,38,38,39,39,40,40,41,41,42,42,43,43,44,44,45,45,46,46,47,47,48,48,49,49,50,50,51,51,52,52,53,53,54,54,55,55,56,56,57,57,58,58,59,59,60,60,61,61,62,62,63,63,64,64,65,65,66,66,67,67,68,68,69,69,70,70,71,71,72,72,73,73,74,74,75,75,76,76,77,77,78,78,79,79,80,80,81,81,82,82,83,83,84,84,85,85,86,86,87,87,88,88,89,89,90,90,91,91,92,92,93,93,94,94,95,95,98,98,99,99,100,100,101,101,102,102,103,103,104,104,105,105,106,106,107,107,109,109,110,110,111,111,112,112,113,113,114,114,115,115,117,117,118,118,119,119,120,120,121,121,122,122,123,123,124,124,125,125,126,126,127,127,128,128,129,129,130,130,131,131,132,132,133,133,134,134,135,135,136,136,137,137,138,138,139,139,140,140,141,141,142,142,143,143,144,144,145,145,146,146,147,147,148,148,149,149,150,150,151,151,152,152,153,153,154,154,155,155,156,156,157,157,158,158,159,159,160,160,161,161,162,162,163,163,164,164,165,165,166,166,167,167,169,169,170,170,171,171,172,172,173,173,174,174,175,175,176,176,177,177,178,178,179,179,180,180,181,181,182,182,183,183,184,184,185,185,186,186,187,187,188,188,189,189,190,190,191,191,192,192,193,193,194,194,195,195,196,196,198,198,199,199,200,200,201,201,202,202,203,203,204,204,205,205,206,206,207,207,208,208,209,209,210,210,211,211,212,212,213,213,214,214,215,215,216,216,217,217,218,218,219,219,220,220,221,221,222,222,225,225,226,226,227,227,228,228,229,229,230,230,231,231,232,232,233,233,234,234,235,235,236,236,237,237,238,238,239,239,240,240,241,241,242,242,243,243,244,244,245,245,246,246],"right_children":[2,4,6,8,10,12,14,16,18,20,22,24,26,28,30,32,34,36,38,40,42,44,46,48,50,52,54,56,58,60,62,64,66,68,70,72,74,76,78,80,82,84,86,88,90,92,94,96,98,100,102,104,106,108,110,112,114,116,118,120,122,124,126,128,130,132,134,136,138,140,142,144,146,148,150,152,154,156,158,160,162,164,166,168,170,172,174,176,178,180,182,184,186,188,190,192,-1,-1,194,196,198,200,202,204,206,208,210,212,-1,214,216,218,220,222,224,226,-1,228,230,232,234,236,238,240,242,244,246,248,250,252,254,256,258,260,262,264,266,268,270,272,274,276,278,280,282,284,286,288,290,292,294,296,298,300,302,304,306,308,310,312,314,316,318,320,322,324,326,328,-1,330,332,334,336,338,340,342,344,346,348,350,352,354,356,358,360,362,364,366,368,370,372,374,376,378,380,382,384,-1,386,388,390,392,394,396,398,400,402,404,406,408,410,412,414,416,418,420,422,424,426,428,430,432,434,-1,-1,436,438,440,442,444,446,448,450,452,454,456,458,460,462,464,466,468,470,472,474,476,478,-1,-1,-1,-1,-1,-1,-1,-1,-1,-1,-1,-1,-1,-1,-1,-1,-1,-1,-1,-1,-1,-1,-1,-1,-1,-1,-1,-1,-1,-1,-1,-1,-1,-1,-1,-1,-1,-1,-1,-1,-1,-1,-1,-1,-1,-1,-1,-1,-1,-1,-1,-1,-1,-1,-1,-1,-1,-1,-1,-1,-1,-1,-1,-1,-1,-1,-1,-1,-1,-1,-1,-1,-1,-1,-1,-1,-1,-1,-1,-1,-1,-1,-1,-1,-1,-1,-1,-1,-1,-1,-1,-1,-1,-1,-1,-1,-1,-1,-1,-1,-1,-1,-1,-1,-1,-1,-1,-1,-1,-1,-1,-1,-1,-1,-1,-1,-1,-1,-1,-1,-1,-1,-1,-1,-1,-1,-1,-1,-1,-1,-1,-1,-1,-1,-1,-1,-1,-1,-1,-1,-1,-1,-1,-1,-1,-1,-1,-1,-1,-1,-1,-1,-1,-1,-1,-1,-1,-1,-1,-1,-1,-1,-1,-1,-1,-1,-1,-1,-1,-1,-1,-1,-1,-1,-1,-1,-1,-1,-1,-1,-1,-1,-1,-1,-1,-1,-1,-1,-1,-1,-1,-1,-1,-1,-1,-1,-1,-1,-1,-1,-1,-1,-1,-1,-1,-1,-1,-1,-1,-1,-1,-1,-1,-1,-1,-1,-1,-1,-1,-1,-1,-1,-1,-1,-1,-1,-1,-1,-1,-1,-1,-1],"split_conditions":[3E0,-2.2167872E-14,2E0,3.05E2,5.26E2,4.2E1,3E0,1.92E3,9.62E2,1E0,1.22E2,1.1486916E-15,2.1E1,9E0,-1.1898459E-14,4E0,5E0,-8E0,1.1E1,3.7E1,2.39E2,7.9E1,1.1E1,2.8E1,4E0,6E0,-2.4292206E-16,8E0,1E0,-3.8061468E-15,1.5E1,3.9E1,2E0,2E0,2E0,4E0,5E0,5E0,2E0,2E0,1.26E2,2E0,9E0,1.898E3,1.9E1,4E0,2E0,6.8E1,7E0,2E0,-3.4692786E-15,-1.5501943E-14,3E0,-2.2167872E-14,-2.5567412E-14,4E0,5E0,2.1E1,-2.1684145E-15,-2E0,-8.6719396E-14,4E0,3.83E2,-1.1401847E-15,-8E0,7.790923E-15,-5E0,1.63E2,2E0,1.76E2,1.1E1,3E0,5.84E2,2E0,2E0,2E0,2E0,1E0,6.5576207E-14,5.4E1,2E2,8.3E1,2E0,9.8E1,1.35E2,2E0,2E0,3E0,3E1,3E0,8.6E1,2E0,2E0,1.7E1,1E0,3E0,-3.055319E-2,-1.323801E-1,1.8E1,6.9E1,3.3E1,2.4E1,-4.278456E-14,1.69E2,3.4E2,-3.5E0,2E1,-5.347363E-15,-1.5340842E-1,1.11E2,3.18E2,4E0,1E0,3.1E1,1.6398579E-15,4.75E1,1.3661454E-2,2.48E2,5E1,8.276509E-15,2.8E1,3.69E2,1.05E2,8E0,1.7E1,2.29E2,8.6E2,5E0,3E0,2E0,6.577261E-15,8.6E1,-2E0,2E0,3.4E1,5.8E1,-5.184926E-14,-6E0,1.97E2,2.8E1,9.2E1,1.36E2,8.8E1,2E0,4.68E2,-2.4E1,1.1E1,3E0,3.4E2,3.8E1,1.1E1,2.9E1,2.2E1,1.9E1,7E0,2.897E3,-1.1467611E-15,2.944E3,4.15E1,3.2E1,6.1E1,2.9E1,6E0,2E0,5.6E1,7.1E1,5E0,2.5E1,1.3661454E-2,7.4E1,9E0,1.4E1,6E0,1.6E1,8E0,-2.1013263E-14,7E1,2E0,4E0,-6E0,9E1,4.35E1,6E0,3.5345656E-17,8.3046567E-16,2.8E1,6E0,9E1,5.3E1,9.3E1,5E1,7E1,-5.579641E-14,3.63575E-15,4.5E1,2.7E1,3E0,-1.3808134E-1,5E0,5.8E1,2.4772974E-15,1.3092895E-14,1.08252064E-14,3.75E1,5E0,-2.005645E-15,-1E0,1.5E1,8E0,8.11892E-15,2E0,6.8E1,1E1,-7E0,1E0,8.712838E-15,-3E0,-3.3661161E-15,6E0,4.55E1,-2.4938422E-15,8.61E2,1.8E2,-1.4655982E-1,4.7456216E-2,-4.325699E-14,3E0,-1.5501943E-14,1E1,1.9E1,5.2E1,-4.7813446E-13,5.281417E-15,-8.158287E-14,8.2E1,9E0,6.1613164E-15,4E0,4E0,7E0,7.326648E-14,4E0,-4.3954657E-14,1.2E1,4.75E1,2E1,1.4E1,-3.2186106E-2,1.13471165E-1,-2.3685088E-2,7.81762E-2,-6.7220375E-2,2.199588E-2,-6.425502E-2,-1.3595864E-1,6.581756E-2,-1.1246758E-1,1.3032353E-1,9.1713354E-2,-4.4409987E-2,9.841271E-2,-5.366953E-3,7.782217E-2,-1.12398826E-1,3.243534E-2,6.9910423E-3,-1.585778E-1,6.9910423E-3,-1.21860184E-1,-1.90212E-2,-7.196247E-2,-6.1495144E-2,3.148326E-2,-2.5360955E-2,-1.07423104E-1,7.466463E-2,2.4092833E-2,9.358631E-2,9.76159E-3,-1.323185E-1,-6.2576085E-2,5.042074E-2,-3.6846593E-2,5.4559197E-2,1.0141335E-1,4.5723572E-2,1.0089071E-1,-6.176849E-2,-1.550814E-1,1.6881496E-2,-8.398198E-2,-6.757682E-2,-8.165474E-3,4.012673E-2,1.0353818E-1,-1.5645415E-1,-7.049345E-2,-9.847445E-2,-4.8756044E-2,-5.3292077E-2,-1.8191248E-2,-2.9212622E-2,1.6062675E-2,-4.3448927E-3,-8.908216E-2,1.3610159E-2,5.6178987E-2,5.4002203E-2,-1.9964392E-3,5.9501834E-2,9.131982E-2,-1.6492385E-1,-1.0695281E-1,4.7456216E-2,-5.811563E-2,-1.7949001E-1,-6.269067E-2,-1.0954708E-1,-1.5618969E-3,-5.307869E-2,1.11100495E-1,-2.9797971E-2,8.3526775E-2,-7.147049E-2,-8.484482E-3,-1.2224843E-1,6.014219E-2,-2.270995E-1,-2.0650509E-1,-2.1633354E-1,-1.2690692E-1,-1.1510086E-1,-1.930258E-1,-1.3217734E-1,2.1912977E-2,-1.3998905E-1,-7.7802263E-4,-1.926531E-1,-5.0365966E-2,-1.6417585E-1,-9.5297515E-2,7.363964E-2,-1.00803666E-1,9.887252E-2,3.3344515E-2,-7.285513E-2,-3.6500592E-3,-3.5091408E-2,5.6221902E-2,3.571629E-2,-1.753669E-1,-5.2602984E-2,-1.4943194E-1,-6.565843E-3,6.628821E-2,-9.2012465E-2,-1.4494652E-2,-1.7034127E-1,-1.4718686E-1,-1.3508408E-1,-1.0426132E-1,-1.00587346E-1,-6.439536E-2,-7.0483215E-2,-4.1814963E-3,-1.6099691E-2,-9.18984E-2,5.2430715E-2,3.1003747E-3,3.1434536E-2,-5.118811E-2,5.6585956E-2,7.840484E-2,8.050472E-2,-5.307869E-2,4.933915E-2,1.4011542E-1,-0E0,-1.1233737E-1,1.00881435E-1,2.343147E-2,1.1643151E-1,-7.3984773E-3,-6.486431E-2,3.6337335E-2,1.9374106E-2,-7.765364E-2,-5.811563E-2,9.280494E-2,-1.17022514E-1,1.8756654E-3,-9.301003E-2,3.6337335E-2,-0E0,-1.9197093E-1,-1.6282743E-2,1.0573293E-1,-1.183251E-2,-9.864274E-2,-2.9939888E-2,-2.0029758E-1,4.517898E-5,-1.1978387E-1,-8.561512E-2,1.960399E-2,-1.24478E-1,-8.030995E-2,-3.1004762E-2,-1.9224086E-1,-1.0676938E-1,-1.5619259E-1,-7.180213E-2,7.817795E-2,8.917594E-2,-4.061954E-2,2.4581466E-2,-6.985625E-2,-4.8769426E-2,-1.0843618E-1,-1.33743575E-2,-1.8898664E-1,7.0586116E-3,-1.22551024E-1,5.075502E-3,1.1048277E-1,3.1642865E-2,-1.0288604E-1,-1.1436107E-1,-3.0850673E-2,4.9835425E-2,-9.205385E-2,1.3646503E-1,3.4981046E-2,-6.753054E-2,7.927081E-2,-4.061954E-2,-1.5948558E-1,-4.234947E-3,-1.16818644E-1,2.155351E-2,-1.465966E-1,1.6106999E-2,-3.247953E-2,-5.8918625E-2,9.941044E-2,1.2189317E-2,4.576029E-2,9.1657154E-2,-6.888702E-2,1.4189456E-1,8.241867E-2,4.80337E-2,-1.971502E-1,9.710071E-2,-5.1751494E-2,-1.2230498E-2,-1.1226871E-1,-6.223562E-2,7.951464E-2,-2.1896778E-1,-1.4014764E-1,-4.584772E-2,-1.5266678E-1,8.373666E-2,1.5865569E-1,-5.9789207E-2,9.380758E-2,1.3463823E-1,1.1611825E-1,1.1839169E-1,7.365584E-2,-1.7349553E-1,-1.0755582E-1,-5.1610775E-2,2.3563253E-2,8.9128606E-2,4.5072284E-2,1.2038195E-1,7.1146615E-2],"split_indices":[3,16,25,9,7,9,25,7,7,16,9,12,0,24,1,23,25,16,25,23,14,23,25,14,16,5,12,24,4,16,16,14,12,25,3,25,25,25,3,3,14,3,16,7,24,25,3,23,0,4,10,16,23,16,16,24,5,22,8,16,1,25,7,12,16,6,16,14,3,14,25,23,7,25,3,25,3,4,4,21,14,14,3,24,9,3,3,23,23,5,23,25,3,25,4,23,0,0,23,23,24,23,2,7,7,18,24,12,0,7,14,5,4,11,8,21,0,7,9,6,23,7,14,24,25,9,7,14,25,23,2,23,16,5,23,23,11,18,9,23,23,14,23,25,9,16,25,22,7,23,25,0,0,0,25,7,10,7,21,23,24,23,25,5,23,23,25,24,0,24,16,25,25,25,25,12,23,3,25,24,23,21,5,8,8,23,25,23,23,23,24,20,12,8,23,0,1,0,4,20,8,6,6,21,24,10,24,5,18,15,4,23,22,16,4,2,18,8,16,21,16,14,14,0,0,11,12,16,5,24,23,1,8,1,23,16,6,3,16,24,4,16,16,24,21,16,25,0,0,0,0,0,0,0,0,0,0,0,0,0,0,0,0,0,0,0,0,0,0,0,0,0,0,0,0,0,0,0,0,0,0,0,0,0,0,0,0,0,0,0,0,0,0,0,0,0,0,0,0,0,0,0,0,0,0,0,0,0,0,0,0,0,0,0,0,0,0,0,0,0,0,0,0,0,0,0,0,0,0,0,0,0,0,0,0,0,0,0,0,0,0,0,0,0,0,0,0,0,0,0,0,0,0,0,0,0,0,0,0,0,0,0,0,0,0,0,0,0,0,0,0,0,0,0,0,0,0,0,0,0,0,0,0,0,0,0,0,0,0,0,0,0,0,0,0,0,0,0,0,0,0,0,0,0,0,0,0,0,0,0,0,0,0,0,0,0,0,0,0,0,0,0,0,0,0,0,0,0,0,0,0,0,0,0,0,0,0,0,0,0,0,0,0,0,0,0,0,0,0,0,0,0,0,0,0,0,0,0,0,0,0,0,0,0,0,0,0,0,0,0,0,0,0,0,0,0,0,0,0],"split_type":[0,0,0,0,0,0,0,0,0,0,0,0,0,0,0,0,0,0,0,0,0,0,0,0,0,0,0,0,0,0,0,0,0,0,0,0,0,0,0,0,0,0,0,0,0,0,0,0,0,0,0,0,0,0,0,0,0,0,0,0,0,0,0,0,0,0,0,0,0,0,0,0,0,0,0,0,0,0,0,0,0,0,0,0,0,0,0,0,0,0,0,0,0,0,0,0,0,0,0,0,0,0,0,0,0,0,0,0,0,0,0,0,0,0,0,0,0,0,0,0,0,0,0,0,0,0,0,0,0,0,0,0,0,0,0,0,0,0,0,0,0,0,0,0,0,0,0,0,0,0,0,0,0,0,0,0,0,0,0,0,0,0,0,0,0,0,0,0,0,0,0,0,0,0,0,0,0,0,0,0,0,0,0,0,0,0,0,0,0,0,0,0,0,0,0,0,0,0,0,0,0,0,0,0,0,0,0,0,0,0,0,0,0,0,0,0,0,0,0,0,0,0,0,0,0,0,0,0,0,0,0,0,0,0,0,0,0,0,0,0,0,0,0,0,0,0,0,0,0,0,0,0,0,0,0,0,0,0,0,0,0,0,0,0,0,0,0,0,0,0,0,0,0,0,0,0,0,0,0,0,0,0,0,0,0,0,0,0,0,0,0,0,0,0,0,0,0,0,0,0,0,0,0,0,0,0,0,0,0,0,0,0,0,0,0,0,0,0,0,0,0,0,0,0,0,0,0,0,0,0,0,0,0,0,0,0,0,0,0,0,0,0,0,0,0,0,0,0,0,0,0,0,0,0,0,0,0,0,0,0,0,0,0,0,0,0,0,0,0,0,0,0,0,0,0,0,0,0,0,0,0,0,0,0,0,0,0,0,0,0,0,0,0,0,0,0,0,0,0,0,0,0,0,0,0,0,0,0,0,0,0,0,0,0,0,0,0,0,0,0,0,0,0,0,0,0,0,0,0,0,0,0,0,0,0,0,0,0,0,0,0,0,0,0,0,0,0,0,0,0,0,0,0,0,0,0,0,0,0,0,0,0,0,0,0,0,0,0,0,0,0,0,0,0,0,0,0,0,0],"sum_hessian":[1.5908867E5,1.2280895E5,3.6279715E4,5.9989816E4,6.2819137E4,4.7404155E3,3.15393E4,1.5553592E4,4.4436227E4,7.5930786E3,5.522606E4,1.6997797E2,4.5704375E3,3.031152E3,2.8508148E4,1.2257381E4,3.2962107E3,1.1397277E4,3.303895E4,1.095981E3,6.4970977E3,3.9014683E3,5.132459E4,6.4197685E1,1.0578027E2,3.7344084E3,8.3602893E2,4.5230188E2,2.57885E3,7.9323047E2,2.7714918E4,3.2876996E2,1.192861E4,3.62571E2,2.9336396E3,6.714494E3,4.682783E3,3.0049867E4,2.989083E3,3.7132526E2,7.246557E2,2.6595837E3,3.837514E3,3.5123916E3,3.8907687E2,4.6905406E4,4.4191836E3,4.6689224E1,1.750846E1,7.781538E1,2.7964901E1,6.901251E2,3.0442834E3,4.0853073E1,7.9517584E2,1.6900526E2,2.832966E2,7.12497E1,2.5076006E3,2.832966E2,5.0993387E2,2.6063773E4,1.651145E3,9.508066E1,2.336893E2,5.3267056E3,6.6019053E3,9.945778E1,2.6311325E2,1.8077484E3,1.1258912E3,5.6513416E2,6.14936E3,4.926686E2,4.1901147E3,3.2709207E3,2.6778945E4,7.521342E2,2.236949E3,1.9380891E2,1.7751633E2,1.6705989E2,5.575958E2,1.3238341E3,1.3357495E3,1.7695703E3,2.0679436E3,2.7284016E3,7.839899E2,2.2080113E2,1.6827574E2,3.9491304E3,4.2956277E4,1.104492E3,3.314692E3,4.4987015E1,1.7022114E0,1.9453844E0,1.5563075E1,2.0912882E1,5.6902493E1,1.3374517E1,1.4590383E1,2.786763E2,4.114488E2,3.4992603E2,2.6943574E3,3.5746437E1,5.106634E0,6.8647754E2,1.0869835E2,8.973086E1,7.9274414E1,2.772173E2,6.079326E0,6.9790665E1,1.4590383E0,5.1844495E2,1.9891555E3,2.22017E2,6.127961E1,2.995892E2,2.1034468E2,2.6034106E3,2.3460363E4,3.8956323E2,1.2615818E3,3.8664516E1,5.6416145E1,1.3179979E2,1.018895E2,2.227465E2,5.103959E3,4.4116455E3,2.1902595E3,3.7691822E1,6.1765953E1,3.282836E1,2.3028488E2,6.908546E2,1.1168938E3,8.9268823E2,2.3320296E2,1.1647989E2,4.4865427E2,2.707732E3,3.4416282E3,1.3544739E2,3.5722122E2,2.6148398E3,1.575275E3,8.678846E2,2.4030361E3,1.7793459E4,8.985487E3,1.541717E2,5.979625E2,5.590548E2,1.677894E3,1.9016132E2,3.6475956E0,7.5626816E1,1.018895E2,1.018895E2,6.517038E1,3.2050208E2,2.3709372E2,1.322375E3,1.4590383E0,5.179586E2,8.1779095E2,9.7536707E2,7.942032E2,1.1288093E3,9.3913434E2,7.1736046E1,2.6566655E3,2.3928227E2,5.4470764E2,7.076336E1,1.5003777E2,1.1088691E2,5.738884E1,1.4979459E3,2.4511843E3,2.7462992E4,1.5493284E4,5.7437476E2,5.3011725E2,7.5480914E2,2.5598826E3,1.3374517E1,3.1612495E1,3.4044228E0,1.2158652E1,1.5076729E1,5.836153E0,6.079326E0,5.0823166E1,5.3498073E0,8.024711E0,2.9180765E0,1.1672306E1,7.5383644E0,2.7113794E2,4.474384E1,3.6670496E2,5.4470764E1,2.9545526E2,2.5557487E2,2.4387825E3,1.3860864E1,2.1885574E1,4.32848E1,6.431927E2,5.665932E1,5.2039032E1,6.3711338E1,2.6019516E1,6.1765953E1,1.750846E1,2.6627448E2,1.0942787E1,4.620288E0,1.4590383E0,5.6172974E1,1.3617691E1,6.395451E1,4.5449042E2,1.07968834E2,1.8811866E3,3.258519E1,1.8943181E2,2.0669708E1,4.0609898E1,2.1399228E2,8.559692E1,1.4906508E2,6.127961E1,4.265255E2,2.176885E3,2.1711705E4,1.7486573E3,2.1204689E2,1.7751633E2,4.2555283E2,8.3602893E2,4.620288E0,3.4044228E1,4.32848E1,1.3131345E1,6.735893E1,6.444086E1,2.4560478E1,7.732903E1,1.9380891E2,2.8937593E1,4.599132E3,5.0482724E2,8.851499E1,4.3231304E3,5.196608E2,1.6705989E3,2.5776342E1,1.191548E1,3.1612496E0,5.8604706E1,3.1612496E0,2.9667112E1,1.1623672E2,1.1404816E2,1.0894153E2,5.819131E2,1.0906311E3,2.626269E1,1.5903517E2,7.336531E2,2.1204689E2,2.1156055E1,7.465413E1,4.1825764E1,1.2280239E2,3.258519E2,4.6543323E2,2.2422986E3,3.1043472E3,3.37281E2,1.0699615E1,1.2474777E2,1.8967497E1,3.3825372E2,6.633761E2,1.9514637E3,1.268877E3,3.0639804E2,8.3408356E2,3.3801052E1,2.100772E3,3.022641E2,1.3876427E4,3.9170315E3,2.256646E3,6.7288413E3,1.1866845E2,3.5503265E1,3.355788E2,2.6238373E2,4.4452032E2,1.1453451E2,5.306036E2,1.1472904E3,1.534422E2,3.671913E1,1.4590383E0,2.1885574E0,4.790509E1,2.7721727E1,3.2098843E1,6.9790665E1,3.1612496E0,9.872826E1,2.5046824E1,4.0123554E1,2.1958527E2,1.0091682E2,4.4257496E1,1.9283623E2,7.324372E2,5.899378E2,5.0020697E2,1.7751633E1,4.1193515E2,4.058558E2,9.4035016E2,3.501692E1,2.2007161E2,5.741316E2,1.1035193E3,2.5289997E1,4.5157236E2,4.8756195E2,1.6535767E1,5.5200283E1,2.3879592E3,2.687062E2,1.3325883E2,1.06023445E2,3.355788E1,5.1114975E2,2.6749036E0,6.8088455E1,1.0529393E2,4.474384E1,4.8148262E1,6.2738647E1,1.7265285E1,4.0123554E1,4.89021E2,1.008925E3,1.094765E3,1.3564193E3,4.818231E3,2.264476E4,3.1607632E3,1.2332521E4,5.164996E2,5.7875187E1,1.8529787E2,3.448194E2,6.901251E2,6.468403E1,1.510591E3,1.0492917E3,1.0213268E1,3.1612496E0,5.59298E0,2.6019516E1,1.2158653E0,2.1885574E0,5.106634E0,7.052018E0,1.2401826E1,2.6749036E0,4.620288E0,1.2158653E0,3.7691822E1,1.3131345E1,2.1885574E0,3.1612496E0,5.59298E0,2.4317305E0,1.7022114E0,1.2158653E0,1.2158653E0,1.0456441E1,1.9453844E0,5.59298E0,2.383096E1,2.4730699E2,1.2158653E0,4.3527977E1,7.052018E0,3.5965292E2,4.9607304E1,4.863461E0,2.4755016E2,4.790509E1,2.1885574E0,2.5338632E2,1.4809239E2,2.2906902E3,1.1429133E1,2.4317305E0,1.750846E1,4.377115E0,2.139923E1,2.1885574E1,5.8604706E1,5.84588E2,1.4590383E0,5.5200283E1,6.8088455E0,4.5230186E1,8.511057E0,5.5200283E1,1.9697018E1,6.3224993E0,4.377115E1,1.7994806E1,9.726922E0,7.7815375E0,2.5630438E2,9.970095E0,4.1339417E0,6.8088455E0,4.377115E0,5.179586E1,5.59298E0,8.024711E0,1.0942787E1,5.3011723E1,2.8183755E2,1.7265286E2,6.079326E0,1.018895E2,1.1798756E3,7.013111E2,1.434721E1,1.8237978E1,1.58792E2,3.0639805E1,8.75423E0,1.191548E1,3.42874E1,6.3224993E0,9.556701E1,1.1842528E2,1.5806248E1,6.9790665E1,1.3277249E2,1.6292595E1,1.0213268E1,5.106634E1,1.3009758E2,2.9642795E2,6.0063744E1,2.1168213E3,1.7025275E4,4.686431E3,9.707468E2,7.779106E2,8.7299126E1,1.2474777E2,1.3398834E2,4.3527977E1,1.6657353E2,2.589793E2,7.353553E2,1.00673645E2],"tree_param":{"num_deleted":"0","num_feature":"26","num_nodes":"479","size_leaf_vector":"1"}},{"base_weights":[3.5656474E-3,-1.9968903E-1,7.029773E-1,9.923449E-2,-4.7817495E-1,-1.1578225E0,9.9408144E-1,7.047364E-1,-1.09114856E-1,-1.3280591E0,-3.8673505E-1,5.494208E-2,-1.2031459E0,2.2432439E-1,1.0773238E0,8.971601E-1,6.7380555E-3,2.4339403E-1,-2.844142E-1,-3.0246517E-1,-1.5032421E0,5.53108E-1,-4.5491287E-1,7.2388303E-1,-3.6689696E-1,-1.2657405E0,-8.5346764E-1,7.055316E-1,1.4223918E-1,-2.3865189E-1,1.1162988E0,-3.6185223E-1,9.3276566E-1,-5.378096E-1,1.0596095E-1,4.8776445E-1,-8.836106E-2,-3.6157647E-1,5.086699E-1,-1.079976E0,1.2007921E-1,-1.8064135E0,-1.2978673E0,6.756885E-1,-5.362918E-1,-5.308077E-1,3.6779854E-1,1.1276556E0,9.4315596E-2,-1.0535728E-1,-1.0006472E0,-9.73853E-1,-1.3306955E0,2.8629009E-2,-9.024451E-1,3.4432553E-2,1.1177471E0,-1.2085865E0,1.8267949E-1,8.5786647E-1,-8.6679494E-1,1.1563385E0,4.8978403E-1,2.9665393E-1,-6.957539E-1,1.1368828E0,7.68378E-1,-8.900288E-1,-3.4192118E-1,-7.522485E-2,4.2765713E-1,-5.525257E-1,5.5198526E-1,-1.7941928E-1,8.652382E-1,-1.1333872E0,-2.9637447E-1,1.6042204E-1,6.2561464E-1,-1.3753706E0,-7.542868E-1,7.7221256E-1,-1.388729E-1,-1.9627827E0,-1.6498803E0,-9.304849E-1,-1.6105866E0,8.051532E-2,7.8088325E-1,-9.79652E-1,5.070384E-2,-1.1699462E0,-4.7180676E-1,-2.8060593E-2,4.9921998E-1,1.1785265E0,9.035283E-4,5.762938E-1,-3.8882706E-1,2.9736122E-1,-4.5775774E-1,-6.8271565E-1,-1.6735205E-1,-1.3755994E0,-8.448666E-1,-9.810672E-1,-1.3710197E0,2.7060658E-1,-1.4282727E-1,-1.141147E0,-7.9751456E-1,5.6812936E-1,-5.530671E-1,1.1718818E0,-1.2832279E0,-1.2380313E0,-0E0,3.2653072E-1,-4.1978016E-2,1.0734234E0,1.6840309E-1,-1.771369E0,-3.3495542E-1,8.9673245E-1,1.185304E0,-7.225127E-1,9.0814584E-1,7.862168E-1,-1.506814E-1,-3.0228624E-1,-1.1281133E0,4.013396E-1,1.1690705E0,-3.8726398E-1,7.914039E-1,-3.6922047E-1,-1.0443654E0,1.10782504E-1,-4.799582E-1,1.7530781E-1,-2.2672635E-1,3.2129166E-1,7.833347E-1,-1.0028485E0,-2.5519237E-1,8.1251067E-1,3.8627654E-1,-9.1185105E-1,-8.243611E-2,9.3309474E-1,2.0923808E-1,-1.377824E0,-9.878195E-1,-4.385263E-1,-3.5643164E-2,-2.857398E-2,4.1759694E-1,3.499374E-1,7.174488E-1,-1.482058E0,-8.914816E-1,-9.9131775E-1,-3.7746146E-2,-7.055448E-1,8.236197E-1,-4.6316037E-1,2.8969374E-1,-1.9820613E0,-1.4556682E0,-1.9077342E0,-1.459645E0,-1.3087553E0,-4.8164397E-1,-1.8200412E0,-1.3613881E0,8.530632E-1,-4.6108586E-1,9.506471E-1,5.0439215E-1,-1.547362E0,-7.008536E-1,3.226662E-1,-3.4216753E-1,-1.3836994E0,-1.0380791E0,-6.422536E-1,-1.6745298E-1,-2.434583E-1,2.0802806E-1,2.2655144E-1,5.7742745E-1,1.230945E0,1.29541755E-2,9.0806305E-1,-6.763535E-2,1.4988206E-1,-7.85697E-1,-2.606838E-1,5.4445016E-1,-1.1655834E0,-2.5941795E-1,3.7573062E-2,-8.0649966E-1,-6.4547515E-1,-1.8054926E0,-6.114086E-1,-1.0103722E0,-1.5351753E0,-9.356002E-1,-1.6854588E0,-1.3370042E0,4.2512697E-1,-5.786767E-1,-1.552246E0,-1.0599065E0,-1.9869667E-1,-8.473126E-1,8.3448994E-1,-6.4778514E-2,-8.651085E-1,-2.8422144E-1,1.211867E0,3.5825634E-1,-1.5819691E-1,-0E0,-9.940304E-2,-1.2742093E0,8.367414E-1,2.6774997E-1,-9.0558964E-1,1.0709169E-1,-7.414767E-1,1.1709948E0,-7.795662E-1,7.9089886E-1,-1.8862803E0,-1.3652982E0,-6.355593E-1,4.985884E-1,1.2657268E0,8.2428914E-1,1.209166E0,8.9119714E-1,-1.1116948E0,-1.7316939E-1,6.16205E-1,1.050575E0,-2.3851253E-2,9.2146546E-2,-4.0239166E-2,5.9897084E-2,-6.713613E-2,8.092175E-3,-1.3554709E-1,-8.22745E-2,-7.6986395E-2,6.8184786E-2,1.2023982E-1,8.452886E-2,-1.3409859E-3,-1.7749055E-1,9.500451E-2,6.4047575E-2,-1.03528045E-1,-2.3038478E-3,4.151291E-3,-1.1001146E-1,-8.431183E-2,5.478396E-2,-9.313569E-2,-3.926136E-2,-4.466615E-2,2.8629957E-2,-6.719523E-2,-1.869019E-2,6.503609E-2,2.5733357E-2,8.3402336E-2,-8.795291E-4,-6.696445E-2,-1.265431E-1,1.0052705E-2,-6.945371E-2,4.0131845E-2,8.810135E-2,3.3276327E-2,8.986797E-2,-1.328825E-1,-7.460483E-2,-2.8915236E-2,3.238273E-2,7.1322516E-2,1.00657724E-1,3.8998816E-2,-6.510986E-2,-1.3983032E-1,-5.110013E-2,-1.0054912E-1,-3.285561E-2,7.581787E-2,-4.5169473E-2,-5.4112013E-2,8.769299E-3,-2.3379001E-4,-1.619749E-1,5.1954754E-2,-2.8012923E-3,4.343717E-2,-2.2359962E-2,8.384573E-2,5.5003013E-2,-1.5657668E-1,-8.143662E-2,2.1972192E-2,-1.1796868E-1,-1.4242238E-1,-4.9727317E-2,-2.4036242E-2,7.383172E-2,-1.15812235E-1,2.545507E-2,1.9374348E-2,9.674994E-2,-6.8153866E-2,-1.2926258E-2,-1.2146828E-1,6.257927E-2,-1.9838521E-1,-2.0161038E-2,9.799553E-2,-1.5914309E-1,-1.9329152E-1,-1.11647904E-1,-1.1622077E-1,-1.7869408E-1,-1.3546254E-1,-2.2770497E-3,-1.18703686E-1,-9.499233E-3,-1.8466596E-1,-1.1234491E-1,-1.5185599E-1,-9.319412E-2,-2.1792859E-2,1.0184296E-1,-1.1198288E-1,-1.8960083E-2,1.09013E-1,3.563745E-2,2.2461053E-2,6.316709E-2,-1.630654E-1,1.5382859E-2,1.3186891E-3,-9.3633965E-2,5.3642164E-3,8.569149E-2,-8.644536E-2,-8.091211E-3,-1.5212643E-1,-1.3137308E-1,-1.2205841E-1,-9.2252776E-2,-9.6076265E-2,-5.713996E-2,-5.058827E-2,-3.2772612E-5,-1.6761063E-2,-9.116372E-2,4.4563036E-2,-6.460936E-3,3.054041E-2,-4.058494E-2,5.972767E-2,-8.8894395E-3,6.5294705E-2,1.3730048E-1,2.6322419E-2,1.2160951E-1,-4.299056E-2,6.759895E-2,-0E0,-1.4214033E-1,7.4135396E-3,-1.1076659E-1,1.0097146E-1,-1.2195752E-2,1.6679673E-2,-1.6571498E-1,1.2858554E-2,-8.76566E-2,-1.4008956E-1,-3.928188E-2,-4.8905606E-3,-9.429068E-2,-1.8932787E-1,-4.554255E-2,5.164362E-2,-6.4583376E-2,1.6091099E-2,-1.0446719E-1,-2.3405207E-2,-1.7213134E-1,-1.22291066E-1,-8.391955E-2,-9.122818E-3,-1.6960798E-1,-1.2219425E-1,-1.4691676E-1,-5.8904238E-2,5.5793058E-2,-1.15094595E-1,6.9796816E-2,-6.869053E-2,-1.8615846E-1,-8.78051E-2,-1.2873913E-1,3.10706E-2,-7.696515E-2,-8.655669E-2,1.966944E-2,-3.270918E-2,9.610878E-2,8.447846E-2,-4.6907518E-2,2.9027341E-2,-1.04029216E-1,6.423273E-2,-3.897054E-2,1.2447875E-1,3.7689317E-2,-7.001247E-2,9.209628E-2,-6.0147878E-2,4.205524E-2,-3.6373615E-2,-1.324835E-1,9.340336E-2,2.918666E-2,5.893299E-2,1.76789E-2,-1.5849333E-1,-7.004992E-2,2.3890702E-2,-7.3346384E-3,-1.2006121E-1,2.2550287E-2,5.1255066E-2,1.2524605E-1,7.489463E-2,-1.511137E-1,1.0806612E-1,-6.072987E-2,-1.9213617E-1,-3.8572922E-2,-1.517986E-1,1.2626453E-2,-1.1805598E-2,-1.0349207E-1,8.3886534E-2,-4.6015367E-2,8.056345E-2,1.4673702E-1,-5.9427228E-2,8.633763E-2,1.249122E-1,1.0649645E-1,1.097286E-2,9.539026E-2,-1.4840153E-1,-8.4909625E-2,-4.237483E-2,1.7152963E-2,-7.162828E-3,7.01379E-2,1.3148169E-2,1.0836959E-1],"categories":[],"categories_nodes":[],"categories_segments":[],"categories_sizes":[],"default_left":[0,0,0,0,0,0,0,0,0,0,0,0,0,0,0,0,0,0,0,0,0,0,0,0,0,0,0,0,0,0,0,0,0,0,0,0,0,0,0,0,0,0,0,0,0,0,0,0,0,0,0,0,0,0,0,0,0,0,0,0,0,0,0,0,0,0,0,0,0,0,0,0,0,0,0,0,0,0,0,0,0,0,0,0,0,0,0,0,0,0,0,0,0,0,0,0,0,0,0,0,0,0,0,0,0,0,0,0,0,0,0,0,0,0,0,0,0,0,0,0,0,0,0,0,0,0,0,0,0,0,0,0,0,0,0,0,0,0,0,0,0,0,0,0,0,0,0,0,0,0,0,0,0,0,0,0,0,0,0,0,0,0,0,0,0,0,0,0,0,0,0,0,0,0,0,0,0,0,0,0,0,0,0,0,0,0,0,0,0,0,0,0,0,0,0,0,0,0,0,0,0,0,0,0,0,0,0,0,0,0,0,0,0,0,0,0,0,0,0,0,0,0,0,0,0,0,0,0,0,0,0,0,0,0,0,0,0,0,0,0,0,0,0,0,0,0,0,0,0,0,0,0,0,0,0,0,0,0,0,0,0,0,0,0,0,0,0,0,0,0,0,0,0,0,0,0,0,0,0,0,0,0,0,0,0,0,0,0,0,0,0,0,0,0,0,0,0,0,0,0,0,0,0,0,0,0,0,0,0,0,0,0,0,0,0,0,0,0,0,0,0,0,0,0,0,0,0,0,0,0,0,0,0,0,0,0,0,0,0,0,0,0,0,0,0,0,0,0,0,0,0,0,0,0,0,0,0,0,0,0,0,0,0,0,0,0,0,0,0,0,0,0,0,0,0,0,0,0,0,0,0,0,0,0,0,0,0,0,0,0,0,0,0,0,0,0,0,0,0,0,0,0,0,0,0,0,0,0,0,0,0,0,0,0,0,0,0,0,0,0,0,0,0,0,0,0,0,0,0,0,0,0,0,0,0,0,0,0,0,0,0,0,0,0,0,0,0,0,0,0,0,0,0,0,0,0,0,0,0,0,0,0,0,0,0,0,0,0,0,0,0,0,0,0,0,0,0],"id":1,"left_children":[1,3,5,7,9,11,13,15,17,19,21,23,25,27,29,31,33,35,37,39,41,43,45,47,49,51,53,55,57,59,61,63,65,67,69,71,73,75,77,79,81,83,85,87,89,91,93,95,97,99,101,103,105,107,109,111,113,115,117,119,121,123,125,127,129,131,133,135,137,139,141,143,145,147,149,151,153,155,157,159,161,163,165,167,169,171,173,175,177,179,181,183,185,187,189,191,-1,193,195,197,199,201,-1,203,205,207,209,211,-1,213,215,217,219,221,223,225,-1,227,229,231,233,235,237,239,241,243,245,247,249,251,253,255,257,259,261,263,265,267,269,271,273,275,277,279,281,283,285,287,289,291,293,295,297,299,301,303,305,307,309,311,313,315,317,319,321,323,325,327,329,331,333,335,337,339,341,343,345,347,349,351,353,355,357,359,361,363,365,367,369,371,373,375,-1,377,-1,379,381,383,385,387,389,-1,391,393,395,397,399,401,403,405,407,409,411,413,415,417,419,421,423,425,427,429,431,-1,-1,433,435,437,439,441,443,445,447,449,451,453,455,457,459,461,463,465,467,469,471,473,475,-1,-1,-1,-1,-1,-1,-1,-1,-1,-1,-1,-1,-1,-1,-1,-1,-1,-1,-1,-1,-1,-1,-1,-1,-1,-1,-1,-1,-1,-1,-1,-1,-1,-1,-1,-1,-1,-1,-1,-1,-1,-1,-1,-1,-1,-1,-1,-1,-1,-1,-1,-1,-1,-1,-1,-1,-1,-1,-1,-1,-1,-1,-1,-1,-1,-1,-1,-1,-1,-1,-1,-1,-1,-1,-1,-1,-1,-1,-1,-1,-1,-1,-1,-1,-1,-1,-1,-1,-1,-1,-1,-1,-1,-1,-1,-1,-1,-1,-1,-1,-1,-1,-1,-1,-1,-1,-1,-1,-1,-1,-1,-1,-1,-1,-1,-1,-1,-1,-1,-1,-1,-1,-1,-1,-1,-1,-1,-1,-1,-1,-1,-1,-1,-1,-1,-1,-1,-1,-1,-1,-1,-1,-1,-1,-1,-1,-1,-1,-1,-1,-1,-1,-1,-1,-1,-1,-1,-1,-1,-1,-1,-1,-1,-1,-1,-1,-1,-1,-1,-1,-1,-1,-1,-1,-1,-1,-1,-1,-1,-1,-1,-1,-1,-1,-1,-1,-1,-1,-1,-1,-1,-1,-1,-1,-1,-1,-1,-1,-1,-1,-1,-1,-1,-1,-1,-1,-1,-1,-1,-1,-1,-1,-1,-1,-1,-1,-1,-1,-1,-1,-1,-1,-1,-1,-1,-1,-1,-1,-1,-1],"loss_changes":[2.2584629E4,1.0247355E4,1.9379367E4,7.490121E3,4.951491E3,2.6624756E2,1.9816738E3,2.0413589E3,2.729736E3,1.1112188E3,3.687247E3,5.001846E1,1.0028955E2,1.1908763E2,1.4322559E3,5.346719E2,1.7760533E2,1.1895425E3,1.8057053E3,2.9760733E2,3.253125E2,5.2032275E2,3.3500635E3,1.7144073E1,1.774251E1,7.2791016E1,3.0939758E1,1.2145116E2,1.4131488E2,5.549808E2,6.791133E2,7.26205E1,3.8730957E2,3.4373444E1,1.621897E2,5.6490906E2,5.4063055E2,1.3524375E3,1.0632648E2,2.8909485E1,9.945328E1,4.693701E1,3.60188E2,2.1890845E2,1.0281453E2,1.8512256E3,2.3583197E2,2.2286224E0,6.996069E0,1.13904295E1,4.7798347E0,3.563513E1,4.3283203E1,1.4165237E1,1.5369507E1,5.3441303E1,3.7626526E1,2.7771988E0,8.113258E1,4.323488E1,2.4524695E2,1.8982031E2,8.284067E2,2.466846E1,3.6541878E1,1.21438965E2,1.714209E2,1.3743408E1,2.0623554E1,6.763469E1,3.743724E1,6.535492E1,3.4298535E2,4.0347168E2,2.3750519E1,7.222534E1,9.189282E2,3.213481E1,4.9085022E1,6.3110657E0,2.6191437E1,1.3596481E1,5.883333E1,5.6694336E0,4.8196533E1,2.4595898E2,8.486133E1,2.2130406E2,1.3870142E2,3.374022E1,1.8439262E1,1.1457471E2,2.3325938E3,5.758164E1,7.228168E1,1.8037453E0,0E0,7.1720266E0,3.4546015E0,5.413247E0,5.3985844E0,3.641635E0,0E0,5.254892E1,2.0291168E1,6.152252E0,2.7248047E1,4.9007006E0,0E0,4.037628E0,1.3800171E1,1.52206745E1,6.3184814E0,7.879364E0,2.6815615E0,2.6993027E0,0E0,4.5439667E1,1.2644898E2,4.0880676E1,4.3302895E1,4.63916E0,8.176996E1,6.6773926E1,1.5902148E2,8.92316E1,4.9323364E1,7.8271904E0,1.1557135E1,1.6637674E1,5.2955475E0,7.272383E1,5.1666504E1,6.536081E1,1.4973242E2,9.911882E0,8.518417E0,3.30699E1,9.252121E0,4.652819E1,1.9411705E1,1.5957832E1,9.309067E0,1.559494E1,4.6803596E1,8.644873E1,1.3289673E2,4.4228027E1,4.2174472E2,6.6881104E0,8.588175E0,1.2538696E1,1.47248535E1,2.5335132E2,5.456582E2,1.5762095E1,1.2786079E1,2.4014412E1,2.8889282E1,5.2802734E0,1.1304052E1,2.3644249E1,6.54218E0,3.2997458E0,1.4327721E1,1.7344616E1,9.333541E1,2.4162598E0,1.7140228E1,5.445801E0,5.743091E1,4.634204E1,1.8190874E2,1.3662598E1,5.054602E1,3.9015717E1,5.51597E1,1.5182043E2,4.0103516E1,1.0825439E1,2.5949814E1,1.4499855E1,9.426691E0,1.1912598E1,5.2354248E1,6.49541E2,9.131474E2,2.9675442E1,3.506556E1,3.813189E1,3.5085327E1,1.5296936E0,0E0,1.86485E0,0E0,2.7575526E0,4.3630614E0,3.7433605E0,8.523321E0,6.3313627E0,8.719072E0,0E0,4.415948E0,1.1687849E1,1.1325073E1,9.582764E0,1.3246185E1,4.82843E0,7.056366E0,4.2667847E0,3.6835938E1,4.568079E0,5.538331E0,5.8575363E0,5.290619E0,1.1620685E1,8.663666E0,9.814533E0,1.0759836E1,7.9402447E0,4.8424554E0,6.1101074E0,9.777027E0,0E0,0E0,1.4351373E0,2.3809204E0,7.800911E0,3.99682E1,1.8250656E1,1.9959553E1,5.9452043E0,1.0259369E1,3.4377045E1,1.8921276E1,6.2024536E0,1.1209991E1,4.9128334E1,2.8911825E1,3.6760864E1,1.1990039E2,1.1989258E2,8.431616E1,2.1835999E1,1.5315865E1,2.3677032E1,2.4422058E1,0E0,0E0,0E0,0E0,0E0,0E0,0E0,0E0,0E0,0E0,0E0,0E0,0E0,0E0,0E0,0E0,0E0,0E0,0E0,0E0,0E0,0E0,0E0,0E0,0E0,0E0,0E0,0E0,0E0,0E0,0E0,0E0,0E0,0E0,0E0,0E0,0E0,0E0,0E0,0E0,0E0,0E0,0E0,0E0,0E0,0E0,0E0,0E0,0E0,0E0,0E0,0E0,0E0,0E0,0E0,0E0,0E0,0E0,0E0,0E0,0E0,0E0,0E0,0E0,0E0,0E0,0E0,0E0,0E0,0E0,0E0,0E0,0E0,0E0,0E0,0E0,0E0,0E0,0E0,0E0,0E0,0E0,0E0,0E0,0E0,0E0,0E0,0E0,0E0,0E0,0E0,0E0,0E0,0E0,0E0,0E0,0E0,0E0,0E0,0E0,0E0,0E0,0E0,0E0,0E0,0E0,0E0,0E0,0E0,0E0,0E0,0E0,0E0,0E0,0E0,0E0,0E0,0E0,0E0,0E0,0E0,0E0,0E0,0E0,0E0,0E0,0E0,0E0,0E0,0E0,0E0,0E0,0E0,0E0,0E0,0E0,0E0,0E0,0E0,0E0,0E0,0E0,0E0,0E0,0E0,0E0,0E0,0E0,0E0,0E0,0E0,0E0,0E0,0E0,0E0,0E0,0E0,0E0,0E0,0E0,0E0,0E0,0E0,0E0,0E0,0E0,0E0,0E0,0E0,0E0,0E0,0E0,0E0,0E0,0E0,0E0,0E0,0E0,0E0,0E0,0E0,0E0,0E0,0E0,0E0,0E0,0E0,0E0,0E0,0E0,0E0,0E0,0E0,0E0,0E0,0E0,0E0,0E0,0E0,0E0,0E0,0E0,0E0,0E0,0E0,0E0,0E0,0E0,0E0,0E0,0E0,0E0,0E0,0E0,0E0,0E0,0E0,0E0,0E0,0E0,0E0,0E0,0E0,0E0,0E0,0E0,0E0,0E0,0E0,0E0],"parents":[2147483647,0,0,1,1,2,2,3,3,4,4,5,5,6,6,7,7,8,8,9,9,10,10,11,11,12,12,13,13,14,14,15,15,16,16,17,17,18,18,19,19,20,20,21,21,22,22,23,23,24,24,25,25,26,26,27,27,28,28,29,29,30,30,31,31,32,32,33,33,34,34,35,35,36,36,37,37,38,38,39,39,40,40,41,41,42,42,43,43,44,44,45,45,46,46,47,47,48,48,49,49,50,50,51,51,52,52,53,53,54,54,55,55,56,56,57,57,58,58,59,59,60,60,61,61,62,62,63,63,64,64,65,65,66,66,67,67,68,68,69,69,70,70,71,71,72,72,73,73,74,74,75,75,76,76,77,77,78,78,79,79,80,80,81,81,82,82,83,83,84,84,85,85,86,86,87,87,88,88,89,89,90,90,91,91,92,92,93,93,94,94,95,95,97,97,98,98,99,99,100,100,101,101,103,103,104,104,105,105,106,106,107,107,109,109,110,110,111,111,112,112,113,113,114,114,115,115,117,117,118,118,119,119,120,120,121,121,122,122,123,123,124,124,125,125,126,126,127,127,128,128,129,129,130,130,131,131,132,132,133,133,134,134,135,135,136,136,137,137,138,138,139,139,140,140,141,141,142,142,143,143,144,144,145,145,146,146,147,147,148,148,149,149,150,150,151,151,152,152,153,153,154,154,155,155,156,156,157,157,158,158,159,159,160,160,161,161,162,162,163,163,164,164,165,165,166,166,167,167,168,168,169,169,170,170,171,171,172,172,173,173,174,174,175,175,176,176,177,177,178,178,179,179,180,180,181,181,182,182,183,183,184,184,185,185,186,186,187,187,188,188,189,189,190,190,191,191,193,193,195,195,196,196,197,197,198,198,199,199,200,200,202,202,203,203,204,204,205,205,206,206,207,207,208,208,209,209,210,210,211,211,212,212,213,213,214,214,215,215,216,216,217,217,218,218,219,219,220,220,221,221,222,222,225,225,226,226,227,227,228,228,229,229,230,230,231,231,232,232,233,233,234,234,235,235,236,236,237,237,238,238,239,239,240,240,241,241,242,242,243,243,244,244,245,245,246,246],"right_children":[2,4,6,8,10,12,14,16,18,20,22,24,26,28,30,32,34,36,38,40,42,44,46,48,50,52,54,56,58,60,62,64,66,68,70,72,74,76,78,80,82,84,86,88,90,92,94,96,98,100,102,104,106,108,110,112,114,116,118,120,122,124,126,128,130,132,134,136,138,140,142,144,146,148,150,152,154,156,158,160,162,164,166,168,170,172,174,176,178,180,182,184,186,188,190,192,-1,194,196,198,200,202,-1,204,206,208,210,212,-1,214,216,218,220,222,224,226,-1,228,230,232,234,236,238,240,242,244,246,248,250,252,254,256,258,260,262,264,266,268,270,272,274,276,278,280,282,284,286,288,290,292,294,296,298,300,302,304,306,308,310,312,314,316,318,320,322,324,326,328,330,332,334,336,338,340,342,344,346,348,350,352,354,356,358,360,362,364,366,368,370,372,374,376,-1,378,-1,380,382,384,386,388,390,-1,392,394,396,398,400,402,404,406,408,410,412,414,416,418,420,422,424,426,428,430,432,-1,-1,434,436,438,440,442,444,446,448,450,452,454,456,458,460,462,464,466,468,470,472,474,476,-1,-1,-1,-1,-1,-1,-1,-1,-1,-1,-1,-1,-1,-1,-1,-1,-1,-1,-1,-1,-1,-1,-1,-1,-1,-1,-1,-1,-1,-1,-1,-1,-1,-1,-1,-1,-1,-1,-1,-1,-1,-1,-1,-1,-1,-1,-1,-1,-1,-1,-1,-1,-1,-1,-1,-1,-1,-1,-1,-1,-1,-1,-1,-1,-1,-1,-1,-1,-1,-1,-1,-1,-1,-1,-1,-1,-1,-1,-1,-1,-1,-1,-1,-1,-1,-1,-1,-1,-1,-1,-1,-1,-1,-1,-1,-1,-1,-1,-1,-1,-1,-1,-1,-1,-1,-1,-1,-1,-1,-1,-1,-1,-1,-1,-1,-1,-1,-1,-1,-1,-1,-1,-1,-1,-1,-1,-1,-1,-1,-1,-1,-1,-1,-1,-1,-1,-1,-1,-1,-1,-1,-1,-1,-1,-1,-1,-1,-1,-1,-1,-1,-1,-1,-1,-1,-1,-1,-1,-1,-1,-1,-1,-1,-1,-1,-1,-1,-1,-1,-1,-1,-1,-1,-1,-1,-1,-1,-1,-1,-1,-1,-1,-1,-1,-1,-1,-1,-1,-1,-1,-1,-1,-1,-1,-1,-1,-1,-1,-1,-1,-1,-1,-1,-1,-1,-1,-1,-1,-1,-1,-1,-1,-1,-1,-1,-1,-1,-1,-1,-1,-1,-1,-1,-1,-1,-1,-1,-1,-1,-1],"split_conditions":[3E0,-2.3648387E-14,2E0,3.05E2,4.26E2,4.2E1,3E0,1.92E3,1.162E3,1E0,1.22E2,1.1486916E-15,2.2E1,9E0,-8.224208E-15,4E0,6E0,-8E0,1.1E1,3.7E1,2.03E2,7.9E1,1.1E1,2.2E1,4E0,6E0,-2.4292206E-16,8E0,1E0,7.632388E-15,1.5E1,4.7E1,2E0,3E0,2E0,3E0,1.1E1,4E0,2E0,2E0,1.2E2,2E0,9E0,1.5E1,1.9E1,4E0,2E0,2.9E1,2.9545837E-15,8E0,1.6317094E-14,9E0,2E0,-2.2167872E-14,-1.818446E-15,4E0,5E0,5.0396512E-15,3.4375968E-15,-2E0,1.18E2,4E0,4.12E2,1E0,-9E0,7.790923E-15,-4.1874937E-14,1.41E2,1.36E2,1.76E2,1.1E1,2.1E1,6.24E2,5E0,8.8E1,2E0,2E0,1.9E1,6.5576207E-14,3.2E1,1E1,2E0,2E0,5E0,1.22E2,2E0,2E0,3.9E1,7.7E1,3E0,8.5E1,2E0,2E0,1.7E1,7.326648E-14,5.1E1,9.035283E-4,-4.4994657E-15,5.3E1,4.2E1,1.25283915E-14,1E1,-1.6735205E-1,5E0,4E0,7.2E1,2E1,7.6E1,-1.4282727E-1,1.53E2,1.11E2,4E0,6E1,3E1,1.2002643E-15,2E0,-0E0,6E0,4.69E2,-3.8653285E-14,3.2E1,9.8E1,3.4E2,8E0,1.7E1,2.57E2,8.6E2,5E0,3E0,2E0,2E0,2E0,-2E0,8.7E1,-8E0,1.3E1,-5.184926E-14,1.9E1,2.446034E-15,2.8E1,1.9E1,1.33E2,2.2E1,-1.6E1,7.43E2,-2.6E1,1.1E1,2E0,2E0,2E0,7.5E0,2.9E1,3E1,2E0,6E0,9.8E1,2.897E3,9.1E1,2.525E3,4.95E1,5.9E1,2.02E2,-2.2999875E-16,-2.966005E-14,4.5E1,6.7E1,5E0,5.95E1,6.4E1,7.3E1,9E0,1.1E1,7E0,1.3E1,1E1,2E0,4E0,6.5E1,3.9E1,7.5E1,8.1E1,4.6E1,4.25E1,3.5345656E-17,4.25E1,1.025E3,7E0,9E1,6.6E1,9.2E1,2.4E1,2E0,1.29541755E-2,-1.5832219E-17,-6.763535E-2,-4.6449677E-15,1.61914E-14,6.5E0,6.4E1,-4.278456E-14,4.5154196E-15,3.7573062E-2,8E0,-2.7901179E-14,6.455329E-15,-3.7111258E-14,-1.5E1,4E1,5.7E1,8.8E1,1.1E1,1E1,8.4E1,-1E0,1E1,-7E0,1.6E1,4.5E1,-8E0,-6E0,3.4E2,8.61E2,1.8E2,-1.5819691E-1,-0E0,6.31E2,-4.083707E-14,1.3E1,2.5E2,1.22E2,1E1,6.7834955E-15,8.578168E-15,-1.8868812E-13,3.7156485E-15,1.8E1,5.1E1,9E0,7.1E1,7E0,1E0,4E0,5.581451E-15,1.2E1,4.5E1,4E0,5.8950342E-15,-2.3851253E-2,9.2146546E-2,-4.0239166E-2,5.9897084E-2,-6.713613E-2,8.092175E-3,-1.3554709E-1,-8.22745E-2,-7.6986395E-2,6.8184786E-2,1.2023982E-1,8.452886E-2,-1.3409859E-3,-1.7749055E-1,9.500451E-2,6.4047575E-2,-1.03528045E-1,-2.3038478E-3,4.151291E-3,-1.1001146E-1,-8.431183E-2,5.478396E-2,-9.313569E-2,-3.926136E-2,-4.466615E-2,2.8629957E-2,-6.719523E-2,-1.869019E-2,6.503609E-2,2.5733357E-2,8.3402336E-2,-8.795291E-4,-6.696445E-2,-1.265431E-1,1.0052705E-2,-6.945371E-2,4.0131845E-2,8.810135E-2,3.3276327E-2,8.986797E-2,-1.328825E-1,-7.460483E-2,-2.8915236E-2,3.238273E-2,7.1322516E-2,1.00657724E-1,3.8998816E-2,-6.510986E-2,-1.3983032E-1,-5.110013E-2,-1.0054912E-1,-3.285561E-2,7.581787E-2,-4.5169473E-2,-5.4112013E-2,8.769299E-3,-2.3379001E-4,-1.619749E-1,5.1954754E-2,-2.8012923E-3,4.343717E-2,-2.2359962E-2,8.384573E-2,5.5003013E-2,-1.5657668E-1,-8.143662E-2,2.1972192E-2,-1.1796868E-1,-1.4242238E-1,-4.9727317E-2,-2.4036242E-2,7.383172E-2,-1.15812235E-1,2.545507E-2,1.9374348E-2,9.674994E-2,-6.8153866E-2,-1.2926258E-2,-1.2146828E-1,6.257927E-2,-1.9838521E-1,-2.0161038E-2,9.799553E-2,-1.5914309E-1,-1.9329152E-1,-1.11647904E-1,-1.1622077E-1,-1.7869408E-1,-1.3546254E-1,-2.2770497E-3,-1.18703686E-1,-9.499233E-3,-1.8466596E-1,-1.1234491E-1,-1.5185599E-1,-9.319412E-2,-2.1792859E-2,1.0184296E-1,-1.1198288E-1,-1.8960083E-2,1.09013E-1,3.563745E-2,2.2461053E-2,6.316709E-2,-1.630654E-1,1.5382859E-2,1.3186891E-3,-9.3633965E-2,5.3642164E-3,8.569149E-2,-8.644536E-2,-8.091211E-3,-1.5212643E-1,-1.3137308E-1,-1.2205841E-1,-9.2252776E-2,-9.6076265E-2,-5.713996E-2,-5.058827E-2,-3.2772612E-5,-1.6761063E-2,-9.116372E-2,4.4563036E-2,-6.460936E-3,3.054041E-2,-4.058494E-2,5.972767E-2,-8.8894395E-3,6.5294705E-2,1.3730048E-1,2.6322419E-2,1.2160951E-1,-4.299056E-2,6.759895E-2,-0E0,-1.4214033E-1,7.4135396E-3,-1.1076659E-1,1.0097146E-1,-1.2195752E-2,1.6679673E-2,-1.6571498E-1,1.2858554E-2,-8.76566E-2,-1.4008956E-1,-3.928188E-2,-4.8905606E-3,-9.429068E-2,-1.8932787E-1,-4.554255E-2,5.164362E-2,-6.4583376E-2,1.6091099E-2,-1.0446719E-1,-2.3405207E-2,-1.7213134E-1,-1.22291066E-1,-8.391955E-2,-9.122818E-3,-1.6960798E-1,-1.2219425E-1,-1.4691676E-1,-5.8904238E-2,5.5793058E-2,-1.15094595E-1,6.9796816E-2,-6.869053E-2,-1.8615846E-1,-8.78051E-2,-1.2873913E-1,3.10706E-2,-7.696515E-2,-8.655669E-2,1.966944E-2,-3.270918E-2,9.610878E-2,8.447846E-2,-4.6907518E-2,2.9027341E-2,-1.04029216E-1,6.423273E-2,-3.897054E-2,1.2447875E-1,3.7689317E-2,-7.001247E-2,9.209628E-2,-6.0147878E-2,4.205524E-2,-3.6373615E-2,-1.324835E-1,9.340336E-2,2.918666E-2,5.893299E-2,1.76789E-2,-1.5849333E-1,-7.004992E-2,2.3890702E-2,-7.3346384E-3,-1.2006121E-1,2.2550287E-2,5.1255066E-2,1.2524605E-1,7.489463E-2,-1.511137E-1,1.0806612E-1,-6.072987E-2,-1.9213617E-1,-3.8572922E-2,-1.517986E-1,1.2626453E-2,-1.1805598E-2,-1.0349207E-1,8.3886534E-2,-4.6015367E-2,8.056345E-2,1.4673702E-1,-5.9427228E-2,8.633763E-2,1.249122E-1,1.0649645E-1,1.097286E-2,9.539026E-2,-1.4840153E-1,-8.4909625E-2,-4.237483E-2,1.7152963E-2,-7.162828E-3,7.01379E-2,1.3148169E-2,1.0836959E-1],"split_indices":[3,16,25,9,7,9,25,7,7,16,9,12,0,24,1,23,25,16,25,23,9,23,25,9,16,5,12,24,4,16,16,14,12,25,3,25,25,25,3,3,7,3,16,23,24,25,3,11,8,5,6,24,23,16,8,24,5,8,16,16,7,25,7,12,16,6,4,9,14,14,25,23,9,25,23,25,3,25,4,23,25,5,3,4,9,3,3,14,9,5,23,25,3,25,4,21,0,16,20,21,6,24,0,24,5,14,24,24,0,9,7,5,23,11,8,17,0,5,7,4,23,14,7,24,25,9,7,14,25,23,3,5,16,23,16,23,11,23,8,23,23,14,25,16,9,16,25,25,3,3,18,0,0,5,25,23,7,23,7,21,9,7,8,4,23,23,25,21,9,24,16,25,25,25,25,23,25,23,23,14,23,21,21,8,21,7,25,23,23,23,16,23,0,10,0,10,6,18,23,2,8,0,22,16,8,2,16,24,24,7,5,23,24,16,5,16,18,23,16,18,7,14,14,0,0,9,11,22,9,9,5,6,6,1,8,25,21,16,23,24,4,16,6,24,21,25,6,0,0,0,0,0,0,0,0,0,0,0,0,0,0,0,0,0,0,0,0,0,0,0,0,0,0,0,0,0,0,0,0,0,0,0,0,0,0,0,0,0,0,0,0,0,0,0,0,0,0,0,0,0,0,0,0,0,0,0,0,0,0,0,0,0,0,0,0,0,0,0,0,0,0,0,0,0,0,0,0,0,0,0,0,0,0,0,0,0,0,0,0,0,0,0,0,0,0,0,0,0,0,0,0,0,0,0,0,0,0,0,0,0,0,0,0,0,0,0,0,0,0,0,0,0,0,0,0,0,0,0,0,0,0,0,0,0,0,0,0,0,0,0,0,0,0,0,0,0,0,0,0,0,0,0,0,0,0,0,0,0,0,0,0,0,0,0,0,0,0,0,0,0,0,0,0,0,0,0,0,0,0,0,0,0,0,0,0,0,0,0,0,0,0,0,0,0,0,0,0,0,0,0,0,0,0,0,0,0,0,0,0,0,0,0,0,0,0,0,0,0,0,0,0,0,0,0,0,0,0],"split_type":[0,0,0,0,0,0,0,0,0,0,0,0,0,0,0,0,0,0,0,0,0,0,0,0,0,0,0,0,0,0,0,0,0,0,0,0,0,0,0,0,0,0,0,0,0,0,0,0,0,0,0,0,0,0,0,0,0,0,0,0,0,0,0,0,0,0,0,0,0,0,0,0,0,0,0,0,0,0,0,0,0,0,0,0,0,0,0,0,0,0,0,0,0,0,0,0,0,0,0,0,0,0,0,0,0,0,0,0,0,0,0,0,0,0,0,0,0,0,0,0,0,0,0,0,0,0,0,0,0,0,0,0,0,0,0,0,0,0,0,0,0,0,0,0,0,0,0,0,0,0,0,0,0,0,0,0,0,0,0,0,0,0,0,0,0,0,0,0,0,0,0,0,0,0,0,0,0,0,0,0,0,0,0,0,0,0,0,0,0,0,0,0,0,0,0,0,0,0,0,0,0,0,0,0,0,0,0,0,0,0,0,0,0,0,0,0,0,0,0,0,0,0,0,0,0,0,0,0,0,0,0,0,0,0,0,0,0,0,0,0,0,0,0,0,0,0,0,0,0,0,0,0,0,0,0,0,0,0,0,0,0,0,0,0,0,0,0,0,0,0,0,0,0,0,0,0,0,0,0,0,0,0,0,0,0,0,0,0,0,0,0,0,0,0,0,0,0,0,0,0,0,0,0,0,0,0,0,0,0,0,0,0,0,0,0,0,0,0,0,0,0,0,0,0,0,0,0,0,0,0,0,0,0,0,0,0,0,0,0,0,0,0,0,0,0,0,0,0,0,0,0,0,0,0,0,0,0,0,0,0,0,0,0,0,0,0,0,0,0,0,0,0,0,0,0,0,0,0,0,0,0,0,0,0,0,0,0,0,0,0,0,0,0,0,0,0,0,0,0,0,0,0,0,0,0,0,0,0,0,0,0,0,0,0,0,0,0,0,0,0,0,0,0,0,0,0,0,0,0,0,0,0,0,0,0,0,0,0,0,0,0,0,0,0,0,0,0,0,0,0,0,0,0,0,0,0,0,0,0,0,0,0,0,0,0,0,0,0,0,0,0,0,0,0,0,0,0],"sum_hessian":[1.588658E5,1.23094484E5,3.5771324E4,5.9369047E4,6.3725434E4,4.8384043E3,3.0932918E4,1.5197935E4,4.4171113E4,6.188191E3,5.7537242E4,1.742156E2,4.6641885E3,3.0193347E3,2.7913584E4,1.1913153E4,3.2847815E3,1.4670035E4,2.9501078E4,9.0348364E2,5.2847075E3,3.8907302E3,5.364651E4,6.705099E1,1.0716462E2,3.9524575E3,7.117311E2,4.381518E2,2.5811829E3,8.026352E2,2.711095E4,3.2718933E2,1.1585964E4,5.0509863E2,2.7796829E3,8.447335E3,6.222701E3,2.688616E4,2.614917E3,3.173819E2,5.8610175E2,2.1292935E3,3.1554138E3,3.4978137E3,3.9291656E2,4.911622E4,4.530296E3,4.003134E1,2.7019646E1,7.720881E1,2.9955814E1,7.2410095E2,3.2283567E3,3.736467E1,6.743664E2,1.674333E2,2.707185E2,7.369663E1,2.5074863E3,2.9207187E2,5.105633E2,2.5481064E4,1.6298855E3,1.1004038E2,2.1714896E2,5.164195E3,6.4217686E3,1.7843536E2,3.2666327E2,1.7787137E3,1.0009691E3,4.9040884E2,7.956926E3,5.681503E3,5.411982E2,2.0923564E3,2.4793805E4,6.584732E2,1.9564438E3,1.6373524E2,1.5364667E2,1.6584875E2,4.20253E2,1.0562266E3,1.073067E3,1.453788E3,1.7016259E3,5.259094E2,2.9719043E3,2.2337071E2,1.6954585E2,4.14836E3,4.4967855E4,1.1292528E3,3.4010432E3,3.81277E1,1.903641E0,1.3484961E1,1.3534685E1,3.6008865E1,4.119994E1,2.2496712E1,7.4591026E0,1.7226987E2,5.518311E2,3.380232E2,2.8903335E3,3.3148968E1,4.2157025E0,2.011082E2,4.7325818E2,8.784907E1,7.9584236E1,2.6554086E2,5.1776276E0,7.1974236E1,1.7224023E0,1.5285195E3,9.7896674E2,2.217596E2,7.031229E1,1.8767467E2,3.2288864E2,2.5628467E3,2.2918217E4,4.1782236E2,1.2120631E3,5.2104515E1,5.7935863E1,1.1514318E2,1.0200577E2,2.1748987E2,4.946705E3,1.2490408E2,6.2968647E3,4.2101265E1,1.363341E2,7.623058E1,2.504327E2,6.699483E2,1.1087654E3,7.729533E2,2.2801581E2,1.9348015E2,2.9692868E2,3.090934E3,4.8659917E3,6.6274164E2,5.018761E3,4.8975226E2,5.1445934E1,7.7596875E2,1.3163878E3,1.6044737E4,8.749067E3,3.8009128E2,2.7838193E2,4.9095328E2,1.4654906E3,1.3145198E2,3.2283264E1,1.1491735E2,3.872931E1,4.868412E0,1.6098035E2,2.392954E2,1.809576E2,1.0131506E3,4.3075924E1,4.4959567E2,6.2347144E2,7.872334E2,6.6655457E2,9.191838E2,7.82442E2,2.1646399E2,3.0944543E2,1.8388451E3,1.1330592E3,7.120137E1,1.5216934E2,1.0049885E2,6.904701E1,1.5770326E3,2.5713274E3,2.8823746E4,1.614411E4,5.906994E2,5.385534E2,7.596529E2,2.6413901E3,3.5974506E1,2.153193E0,1.1050613E1,2.4343462E0,6.030481E0,7.5042043E0,1.0901293E1,2.5107573E1,7.3063064E0,3.3893635E1,1.9512389E0,2.0545473E1,6.531859E1,1.0695128E2,2.3209264E2,3.1973846E2,2.1739252E1,3.1628394E2,2.7475327E2,2.61558E3,2.877963E1,4.3693376E0,2.8499897E1,1.726083E2,3.7063667E1,4.3619452E2,6.1603397E1,2.6245667E1,3.512125E1,4.4462986E1,2.5228535E2,1.3255513E1,3.9652336E0,1.2123941E0,2.4746666E0,6.9499565E1,1.5568001E2,1.3728395E3,1.4308499E2,8.358817E2,1.0756517E1,2.1100308E2,2.7656454E1,4.265583E1,1.4182616E2,4.5848507E1,2.376576E2,8.523105E1,4.1630142E2,2.1465452E3,2.1193688E4,1.7245293E3,2.4355696E2,1.742654E2,4.0028323E2,8.1177985E2,5.855429E0,4.6249084E1,4.3992702E1,1.3943164E1,5.8211544E1,5.6931637E1,5.5327087E1,4.667868E1,4.1450146E1,1.7603972E2,4.481077E3,4.656277E2,9.964468E1,2.5259405E1,3.0657935E3,3.2310713E3,1.3278495E1,2.8822767E1,6.5887184E0,1.2974538E2,2.3442858E1,5.2787727E1,3.806624E1,2.1236646E2,1.006264E2,5.693219E2,8.887281E1,1.01989264E3,1.232917E2,6.496616E2,2.143466E2,1.3669205E1,8.77879E1,1.05692245E2,1.6459335E2,1.3233533E2,4.430783E2,2.647856E3,4.4082783E3,4.5771332E2,1.8538808E2,4.7735358E2,3.3267249E3,1.6920363E3,1.2704284E2,3.627094E2,4.3287792E1,8.158142E0,7.57048E2,1.892076E1,1.281108E3,3.5279736E1,1.736267E2,1.587111E4,1.715215E3,7.0338525E3,3.7546548E2,4.6258097E0,2.265299E2,5.185201E1,4.2842084E2,6.2532448E1,8.468131E2,6.186774E2,1.1488185E2,1.6570124E1,6.650616E0,2.5632648E1,5.9635345E1,5.5282005E1,3.1634407E1,7.0949035E0,3.1692402E0,1.6991718E0,3.0717997E1,1.3026234E2,1.4354912E2,9.574628E1,3.227523E1,1.4868236E2,1.01190533E3,1.2452681E0,1.7429564E0,4.1332966E1,4.3350897E2,1.6086702E1,3.3037122E2,2.931002E2,7.599681E2,2.7265293E1,2.3481078E2,4.3174377E2,8.828287E2,3.6355114E1,5.6984814E2,2.1259387E2,2.8808012E1,1.8765598E2,8.883551E1,2.2060991E2,1.4881407E3,3.5070425E2,3.5582474E2,7.7723444E2,6.799332E1,3.2080488E0,3.7984413E1,1.1418494E2,6.806308E1,3.243577E1,2.1739893E1,4.7307117E1,5.2071515E2,1.0563174E3,9.9096344E2,1.5803639E3,5.2414893E3,2.3582258E4,5.3356816E3,1.0808429E4,5.3230164E2,5.839778E1,2.8745377E2,2.5109966E2,6.762647E2,8.33882E1,2.5652778E3,7.611238E1,8.8924E0,2.7082108E1,4.5765142E0,6.4740996E0,2.9089406E0,3.12154E0,4.0934954E0,3.410709E0,8.709137E0,2.1921554E0,1.4418417E1,1.0689156E1,2.1813629E0,5.1249437E0,2.1439787E1,1.2453847E1,6.863016E0,1.3682456E1,2.2424269E1,4.2894318E1,9.978529E1,7.1659827E0,6.16622E0,2.2592642E2,8.856311E0,3.1088214E2,3.2118027E0,1.852745E1,7.479898E1,2.4148497E2,1.9758352E0,2.7277744E2,1.4068765E3,1.2087036E3,2.6484334E0,2.6131197E1,3.1730196E0,1.196318E0,8.862407E0,1.963749E1,1.0021997E2,7.238833E1,1.985644E1,1.7207226E1,4.290449E2,7.1496096E0,5.743076E0,5.586032E1,7.497226E0,1.874844E1,4.4191995E0,3.0702051E1,3.667391E0,4.0795597E1,2.4189227E2,1.0393083E1,4.4123683E0,8.843144E0,1.237175E0,1.2374916E0,4.4116297E0,6.508794E1,1.3102882E2,2.4651196E1,3.006423E2,1.0721971E3,3.072655E1,1.12358444E2,4.8306018E2,3.5282156E2,7.1178575E0,3.6386595E0,2.4571291E1,1.864318E2,8.896394E0,1.876006E1,3.567477E1,6.9810596E0,1.3810999E2,3.7161763E0,4.1627647E1,4.220858E0,1.0447276E2,1.3318481E2,6.312025E1,2.2110794E1,1.2928934E2,2.870121E2,5.69202E1,2.089625E3,1.658583E4,4.6078584E3,1.2852333E2,1.596006E3,9.769055E1,1.4586641E2,1.0087814E2,7.3387245E1,4.4002247E1,3.5628098E2,2.8600544E1,7.831793E2],"tree_param":{"num_deleted":"0","num_feature":"26","num_nodes":"477","size_leaf_vector":"1"}},{"base_weights":[3.7913776E-3,-1.7908192E-1,6.4691603E-1,6.292252E-1,-2.630356E-1,-1.0347492E0,9.170521E-1,-9.1603005E-1,7.177923E-1,2.1711646E-1,-3.890671E-1,2.2155734E-2,-1.0730495E0,1.9424151E-1,9.970957E-1,5.7654256E-1,-1.4726187E0,1.5007924E-1,8.382832E-1,7.038586E-1,-2.7469987E-2,-4.5666263E-1,3.3205932E-1,6.6589653E-1,-3.480309E-1,-8.8512254E-1,-1.1646221E0,6.68274E-1,1.14154786E-1,-2.170002E-1,1.0337718E0,-5.230524E-2,1.108069E0,6.649809E-1,-1.696366E0,3.7911686E-1,-6.641856E-1,3.8613014E-2,9.087897E-1,-1.0131272E-1,7.5986254E-1,-9.695323E-2,7.034832E-1,-9.5683944E-1,-3.911358E-1,1.5684418E-2,4.369611E-1,8.4678745E-1,-5.769277E-1,-5.494992E-3,-8.6368483E-1,-2.1895035E-1,-9.738557E-1,-8.3493894E-1,-1.1973608E0,4.24543E-2,1.057908E0,-1.0738271E0,1.5247683E-1,7.87226E-1,-7.862457E-1,1.0722129E0,4.431182E-1,7.712909E-1,-1.7764641E0,1.2649906E0,7.3601943E-1,7.891015E-1,-7.985197E-1,-5.9300727E-1,-1.7690599E0,-3.1178057E-1,5.326495E-1,-2.4172866E-1,-1.329347E0,9.174915E-1,-2.529109E-1,1.0659066E0,6.384104E-1,-5.9348E-1,2.2141157E-1,9.374371E-1,5.4125255E-1,-6.861315E-1,-2.1428095E-2,7.9137737E-1,3.81528E-1,-1.1554041E0,-7.75496E-1,-5.4474217E-1,-9.358329E-2,-1.8171084E-1,2.558258E-1,5.0256366E-1,-1.5980974E-2,-7.078733E-2,9.0220106E-1,7.836187E-2,-1.0152683E0,5.137954E-1,-1.7357047E-1,-6.099926E-1,-1.5044984E-1,1.5866005E-1,-4.3508437E-1,-7.745797E-1,-1.1198452E0,-1.2895215E0,-5.9525317E-1,-9.2258203E-1,-1.2281924E0,5.4652005E-1,-5.176968E-1,1.1017511E0,-8.09247E-1,-1.6593605E0,-8.8577354E-1,3.0395985E-1,-2.047628E-2,9.835503E-1,1.6541946E-1,-2.4368817E-2,-1.2776294E0,9.0287167E-1,1.1150384E0,-6.594837E-1,8.247134E-1,3.2034758E-1,1.0890896E0,-6.578406E-2,-1.9746606E0,-0E0,1.3448136E0,9.900616E-1,-1.9816786E-1,-1.7571509E-1,1.0492744E0,-0E0,-1.12951115E-1,-1.2376329E0,2.7939767E-1,-1.7973044E0,-2.1961546E-1,-6.011503E-1,1.056842E0,7.560329E-1,6.931212E-2,5.7522357E-1,-5.239833E-1,-1.4994893E0,-8.101718E-1,1.0500226E0,-2.759287E-1,-8.9896137E-1,-7.675332E-2,1.1537604E0,7.7062786E-1,9.7465813E-1,3.692425E-1,-2.6228103E-1,-8.751001E-1,8.312343E-1,-6.1136186E-2,4.4541118E-1,1.0542057E0,5.8817554E-1,-6.707175E-2,-9.1123164E-1,-4.8054653E-1,-1.6426405E-1,2.7266863E-1,5.336042E-1,8.7702173E-1,1.9052574E-1,5.586987E-1,-1.2492821E0,-1.0323212E0,-1.0181242E0,-6.860397E-1,-4.59415E-1,-9.102641E-1,-3.2615718E-2,-5.186382E-1,-4.556678E-1,-6.555532E-3,3.8118128E-2,4.6474057E-1,1.862814E-1,5.731316E-1,-1.1342777E0,2.4923395E-1,1.1586053E0,5.069785E-1,-1.2772171E-1,-1.3336121E-2,-4.2745046E-2,6.889101E-1,-5.0369287E-1,2.6366255E-1,1.4467245E-1,-8.7462586E-1,3.461202E-1,-6.596331E-1,5.4547346E-1,-4.960561E-1,-6.436405E-1,-1.0114131E0,-7.028353E-1,-1.1912807E0,-5.1885355E-1,-1.7113206E0,-7.234562E-1,-2.3631972E-1,-1.0795785E0,-6.9216096E-1,-1.3607349E0,-1.1767707E0,6.593523E-1,-8.913969E-1,-6.659172E-1,-1.2306584E-2,1.1407068E0,1.4376673E-1,-1.2833469E-1,4.5312453E-2,-1.7859794E-2,-1.7491021E0,-1.0134202E0,-1.711401E-1,2.3169732E-1,6.954796E-1,-6.2893134E-1,1.1561409E-1,-6.111261E-1,1.0773655E0,-6.058447E-1,7.411479E-1,4.1975638E-1,-3.7382928E-1,-1.6097714E0,-8.4507406E-1,1.2108449E0,8.3998036E-1,1.1323878E0,6.121289E-1,-1.1940992E0,-3.157384E-1,5.486213E-1,9.6458447E-1,8.509407E-2,-4.152456E-2,3.2595534E-2,1.2736185E-1,5.0971158E-2,-7.451796E-2,-2.0694323E-1,-3.573871E-2,7.352237E-2,-5.5700988E-2,1.4157662E-1,2.4371007E-2,-8.474711E-3,1.0752752E-1,6.795862E-2,-1.07884765E-1,-7.203428E-2,9.58065E-2,3.6634672E-2,1.2023711E-1,-1.4002873E-1,4.4224774E-3,-6.613669E-2,8.6419635E-2,-1.8019293E-1,-1.4050362E-2,-1.3133158E-1,1.233411E-1,1.08299576E-1,-8.3562315E-2,-1.023502E-1,1.1581496E-1,-2.366725E-2,9.0986155E-2,4.419592E-2,-1.6584119E-1,9.568347E-2,-8.6866446E-2,-1.3468816E-2,-1.4469157E-1,-0E0,-1.5179305E-1,-1.1921524E-1,-2.200798E-2,5.8377784E-2,1.2985143E-1,5.602026E-2,-1.1204895E-1,-3.829027E-2,-1.1063025E-1,2.7098874E-2,-5.1524043E-2,1.24401785E-1,9.953012E-2,3.8659524E-2,8.9488186E-2,1.0381448E-1,2.2692978E-2,5.0912913E-2,-4.8190154E-2,-6.1942644E-2,1.1082313E-2,-5.1074643E-2,-1.0873622E-1,2.0255601E-2,1.0969176E-1,2.3562806E-2,-4.4061985E-2,5.8395207E-2,-5.2685994E-3,4.9434155E-2,1.07780755E-1,6.887924E-2,4.2549726E-2,-3.2262657E-2,3.573257E-2,-1.0295693E-1,-6.685157E-2,-2.1337252E-2,-6.5857135E-2,8.256814E-3,-2.8599491E-2,-2.1429048E-3,3.7085123E-2,-1.946046E-2,5.9023168E-2,6.605701E-2,9.594658E-2,5.189708E-2,-6.455736E-3,2.0212073E-2,7.623168E-2,-1.430732E-1,-1.21625744E-1,-1.19779244E-1,-9.24113E-2,-6.713497E-2,-1.1373816E-1,-1.0396292E-1,-6.244905E-2,-7.5308554E-2,-3.9216865E-2,-1.4480124E-1,-6.589296E-2,-2.963141E-2,6.022306E-3,-1.2919478E-1,-1.9874593E-2,-3.9894693E-2,-1.1459167E-1,4.1293143E-3,-7.057317E-2,1.0075619E-2,-1.0426964E-1,3.1639695E-2,6.765851E-2,2.5451085E-2,-5.2374925E-2,-5.3682704E-2,5.8460888E-2,-1.219697E-1,3.783183E-2,-9.285549E-3,3.9302565E-2,1.23395525E-1,-8.493016E-3,-6.4137E-2,6.668707E-2,1.1464391E-1,8.5516804E-4,-6.978493E-2,1.0406575E-1,6.036259E-2,-2.9231483E-2,-7.820496E-2,8.2546264E-2,-1.21216945E-1,5.770463E-3,4.4582877E-2,-1.106054E-1,-1.16617225E-1,4.3279544E-2,-5.776192E-2,9.258068E-2,-1.6904296E-2,-6.851877E-2,-1.20981835E-1,-5.5353142E-2,-1.3774331E-1,-8.9925535E-2,-7.5538225E-2,5.040993E-2,-8.604728E-2,-1.2544458E-1,-1.0386503E-1,-6.0181543E-3,-1.7357739E-2,-1.7366832E-1,-3.8528267E-2,-8.820783E-2,6.216786E-2,-3.8252477E-2,3.8904812E-2,-1.1051998E-1,-8.57922E-2,-3.3213396E-2,9.91067E-3,-1.3647228E-1,-1.023001E-1,-1.2402635E-1,-4.7173772E-2,7.525658E-2,3.548227E-2,-1.2556244E-1,-7.780709E-2,-2.1408768E-3,4.1802414E-2,-6.506262E-2,1.1736305E-1,2.6063373E-2,-6.430407E-2,6.4051695E-2,-4.688231E-2,-1.8463647E-1,-1.2921947E-1,-6.560769E-2,3.038986E-2,-8.090342E-2,4.570717E-3,5.0984412E-2,-9.74054E-2,7.389503E-2,-1.4536405E-1,-4.626037E-2,2.2958409E-2,-5.961049E-3,7.6043986E-2,-8.580617E-2,4.0088024E-2,1.1537691E-1,6.991985E-2,-1.2686321E-1,9.587357E-2,-3.303667E-2,6.2089372E-2,-7.430291E-2,2.878859E-2,-7.380516E-2,-1.6310845E-1,-3.8092036E-2,-5.002146E-2,-1.2006115E-1,9.312072E-2,1.3142784E-1,-3.7166875E-2,8.746904E-2,1.1710385E-1,9.570839E-2,8.20921E-2,2.4403319E-2,-1.3161379E-1,-2.6114944E-2,-5.239789E-2,9.880427E-4,6.1333485E-2,-1.730445E-2,1.0273494E-1,6.0222E-2],"categories":[],"categories_nodes":[],"categories_segments":[],"categories_sizes":[],"default_left":[0,0,0,0,0,0,0,0,0,0,0,0,0,0,0,0,0,0,0,0,0,0,0,0,0,0,0,0,0,0,0,0,0,0,0,0,0,0,0,0,0,0,0,0,0,0,0,0,0,0,0,0,0,0,0,0,0,0,0,0,0,0,0,0,0,0,0,0,0,0,0,0,0,0,0,0,0,0,0,0,0,0,0,0,0,0,0,0,0,0,0,0,0,0,0,0,0,0,0,0,0,0,0,0,0,0,0,0,0,0,0,0,0,0,0,0,0,0,0,0,0,0,0,0,0,0,0,0,0,0,0,0,0,0,0,0,0,0,0,0,0,0,0,0,0,0,0,0,0,0,0,0,0,0,0,0,0,0,0,0,0,0,0,0,0,0,0,0,0,0,0,0,0,0,0,0,0,0,0,0,0,0,0,0,0,0,0,0,0,0,0,0,0,0,0,0,0,0,0,0,0,0,0,0,0,0,0,0,0,0,0,0,0,0,0,0,0,0,0,0,0,0,0,0,0,0,0,0,0,0,0,0,0,0,0,0,0,0,0,0,0,0,0,0,0,0,0,0,0,0,0,0,0,0,0,0,0,0,0,0,0,0,0,0,0,0,0,0,0,0,0,0,0,0,0,0,0,0,0,0,0,0,0,0,0,0,0,0,0,0,0,0,0,0,0,0,0,0,0,0,0,0,0,0,0,0,0,0,0,0,0,0,0,0,0,0,0,0,0,0,0,0,0,0,0,0,0,0,0,0,0,0,0,0,0,0,0,0,0,0,0,0,0,0,0,0,0,0,0,0,0,0,0,0,0,0,0,0,0,0,0,0,0,0,0,0,0,0,0,0,0,0,0,0,0,0,0,0,0,0,0,0,0,0,0,0,0,0,0,0,0,0,0,0,0,0,0,0,0,0,0,0,0,0,0,0,0,0,0,0,0,0,0,0,0,0,0,0,0,0,0,0,0,0,0,0,0,0,0,0,0,0,0,0,0,0,0,0,0,0,0,0,0,0,0,0,0,0,0,0,0,0,0,0,0,0,0,0,0,0,0,0,0,0,0,0,0,0,0,0,0,0,0,0,0,0,0],"id":2,"left_children":[1,3,5,7,9,11,13,15,17,19,21,23,25,27,29,31,33,35,37,39,41,43,45,47,49,51,53,55,57,59,61,63,65,67,69,71,73,75,77,79,81,83,85,87,89,91,93,95,97,99,101,103,105,107,109,111,113,115,117,119,121,123,125,127,129,131,133,135,137,139,141,143,145,147,149,151,153,155,157,159,161,163,165,167,169,171,173,175,177,179,181,183,185,187,189,-1,191,-1,193,195,197,199,-1,201,203,205,207,209,211,213,215,217,219,221,223,225,227,229,231,233,235,237,239,241,243,245,247,249,251,253,255,257,259,261,263,265,267,-1,-1,269,271,273,275,277,279,281,283,285,287,289,291,293,295,297,299,301,303,305,307,309,311,313,315,317,319,321,323,325,327,329,331,333,335,337,339,341,343,345,347,349,351,353,355,357,359,361,363,365,367,369,371,373,375,-1,-1,-1,377,379,381,383,385,387,389,391,393,395,397,399,401,403,405,407,409,411,413,415,417,419,421,423,425,427,429,-1,-1,-1,431,433,435,437,439,441,443,445,447,449,451,453,455,457,459,461,463,465,467,469,471,473,475,-1,-1,-1,-1,-1,-1,-1,-1,-1,-1,-1,-1,-1,-1,-1,-1,-1,-1,-1,-1,-1,-1,-1,-1,-1,-1,-1,-1,-1,-1,-1,-1,-1,-1,-1,-1,-1,-1,-1,-1,-1,-1,-1,-1,-1,-1,-1,-1,-1,-1,-1,-1,-1,-1,-1,-1,-1,-1,-1,-1,-1,-1,-1,-1,-1,-1,-1,-1,-1,-1,-1,-1,-1,-1,-1,-1,-1,-1,-1,-1,-1,-1,-1,-1,-1,-1,-1,-1,-1,-1,-1,-1,-1,-1,-1,-1,-1,-1,-1,-1,-1,-1,-1,-1,-1,-1,-1,-1,-1,-1,-1,-1,-1,-1,-1,-1,-1,-1,-1,-1,-1,-1,-1,-1,-1,-1,-1,-1,-1,-1,-1,-1,-1,-1,-1,-1,-1,-1,-1,-1,-1,-1,-1,-1,-1,-1,-1,-1,-1,-1,-1,-1,-1,-1,-1,-1,-1,-1,-1,-1,-1,-1,-1,-1,-1,-1,-1,-1,-1,-1,-1,-1,-1,-1,-1,-1,-1,-1,-1,-1,-1,-1,-1,-1,-1,-1,-1,-1,-1,-1,-1,-1,-1,-1,-1,-1,-1,-1,-1,-1,-1,-1,-1,-1,-1,-1,-1,-1,-1,-1,-1,-1,-1,-1,-1,-1,-1,-1,-1,-1,-1,-1,-1,-1,-1,-1,-1,-1],"loss_changes":[1.8574072E4,8.344564E3,1.5885252E4,1.584435E3,6.7411313E3,1.9606006E2,1.7426016E3,5.229034E2,7.4831494E2,2.7574146E3,4.3012754E3,4.104248E1,7.862793E1,1.1390986E2,1.2081348E3,5.753281E1,2.2072675E2,3.5805386E2,5.0882812E2,3.494768E2,7.830175E2,2.6434023E3,2.5093976E2,1.4903542E1,1.9197914E1,9.040967E1,3.213916E1,1.05626205E2,1.1729907E2,4.5622876E2,5.9691406E2,1.1565292E2,3.840042E0,9.011059E0,3.1463379E1,1.5917218E2,1.1780711E2,1.8825053E2,3.5121875E2,8.043857E1,2.8025E2,6.264117E2,3.730066E1,3.3490527E2,3.260171E3,8.9430916E1,1.6881543E2,5.7670746E0,6.4738464E0,5.9696536E0,5.47863E0,1.5043639E1,3.794922E1,3.0089981E1,2.2216553E1,4.790559E1,2.3244354E1,6.406563E0,6.5382996E1,3.4899994E1,1.9043051E2,1.7754297E2,6.7885693E2,7.231514E0,8.528603E0,6.3952713E0,7.8257523E0,1.0844994E1,1.117315E0,1.6351574E1,1.6201904E1,1.0910162E2,1.2676425E2,6.033384E1,1.2371674E1,2.9458694E1,6.257536E1,1.3451758E2,2.756317E2,1.8243965E1,5.286895E1,2.286211E2,9.288245E1,7.322626E1,5.2437054E2,2.2329895E1,9.583851E0,4.9333496E1,1.0488135E2,1.4665273E3,6.293479E2,4.9624493E1,3.8640804E1,1.1049048E2,2.1398584E2,0E0,4.465626E0,0E0,1.3074727E0,3.2168694E0,7.739812E0,7.00801E0,0E0,1.0656787E1,7.3824654E0,1.6794098E1,2.1754639E1,3.0352615E1,8.4737015E0,9.327408E0,1.4766602E1,1.535174E1,5.9367085E0,9.395966E0,5.111151E0,1.69421E0,5.485977E0,3.729429E1,9.668138E1,3.3811737E1,3.231807E1,3.1463053E1,4.2165924E1,9.506616E1,1.7085938E2,7.556439E1,4.531427E1,1.0343586E1,3.6622047E0,2.2893903E0,2.2487183E0,2.7612362E0,3.9630356E0,2.5274792E0,7.2305064E0,7.2303157E0,2.6517944E0,0E0,0E0,3.6551113E0,8.056414E0,2.3463135E0,1.6302818E1,9.078552E1,1.1942257E1,1.26694824E2,2.5896317E2,3.834543E1,6.9216385E1,3.2867126E0,9.318768E0,1.7804047E1,1.4700783E1,1.1833084E1,6.659124E1,5.5677246E1,5.6963135E1,6.3901E1,2.0255751E2,1.2739392E1,7.325699E0,1.5752869E1,2.3866455E1,5.315503E1,4.168213E1,4.884204E1,2.5541254E1,2.0673523E1,3.962767E1,2.5252142E2,1.1787488E2,1.1176331E1,1.2900269E1,1.2006758E1,1.0525093E1,1.222998E1,3.2818604E1,5.299048E1,7.669385E1,7.5273535E2,1.2015015E3,5.201239E2,7.530962E2,1.495726E1,2.1294552E1,2.8411451E1,1.3219574E1,4.4134506E1,5.2134033E1,1.864772E1,2.8759495E1,3.2402763E0,5.092689E0,0E0,0E0,0E0,4.4537554E0,1.0145744E1,4.6917644E0,7.2550745E0,8.18779E0,8.775769E0,8.017115E0,4.0211334E0,6.594904E0,1.8045517E1,6.248932E0,8.064953E0,1.2013428E1,8.60739E0,1.802185E0,6.894432E0,6.970197E0,7.179413E0,6.8217735E0,4.4300537E0,1.5965088E1,9.391418E0,3.9688463E0,4.3713036E0,5.8964047E0,6.6781616E0,5.326036E0,0E0,0E0,0E0,5.2207565E-1,3.9252052E0,3.9545817E0,5.8121002E1,1.6025978E1,2.8075905E1,1.908357E1,5.4155335E0,9.87677E0,2.8372791E1,1.0222158E1,2.1540691E1,2.7727787E1,3.403717E0,1.5809593E1,2.2346191E1,1.7529224E2,1.2726172E2,5.0403687E1,1.7747452E1,1.733609E1,1.9188324E1,1.6941895E1,0E0,0E0,0E0,0E0,0E0,0E0,0E0,0E0,0E0,0E0,0E0,0E0,0E0,0E0,0E0,0E0,0E0,0E0,0E0,0E0,0E0,0E0,0E0,0E0,0E0,0E0,0E0,0E0,0E0,0E0,0E0,0E0,0E0,0E0,0E0,0E0,0E0,0E0,0E0,0E0,0E0,0E0,0E0,0E0,0E0,0E0,0E0,0E0,0E0,0E0,0E0,0E0,0E0,0E0,0E0,0E0,0E0,0E0,0E0,0E0,0E0,0E0,0E0,0E0,0E0,0E0,0E0,0E0,0E0,0E0,0E0,0E0,0E0,0E0,0E0,0E0,0E0,0E0,0E0,0E0,0E0,0E0,0E0,0E0,0E0,0E0,0E0,0E0,0E0,0E0,0E0,0E0,0E0,0E0,0E0,0E0,0E0,0E0,0E0,0E0,0E0,0E0,0E0,0E0,0E0,0E0,0E0,0E0,0E0,0E0,0E0,0E0,0E0,0E0,0E0,0E0,0E0,0E0,0E0,0E0,0E0,0E0,0E0,0E0,0E0,0E0,0E0,0E0,0E0,0E0,0E0,0E0,0E0,0E0,0E0,0E0,0E0,0E0,0E0,0E0,0E0,0E0,0E0,0E0,0E0,0E0,0E0,0E0,0E0,0E0,0E0,0E0,0E0,0E0,0E0,0E0,0E0,0E0,0E0,0E0,0E0,0E0,0E0,0E0,0E0,0E0,0E0,0E0,0E0,0E0,0E0,0E0,0E0,0E0,0E0,0E0,0E0,0E0,0E0,0E0,0E0,0E0,0E0,0E0,0E0,0E0,0E0,0E0,0E0,0E0,0E0,0E0,0E0,0E0,0E0,0E0,0E0,0E0,0E0,0E0,0E0,0E0,0E0,0E0,0E0,0E0,0E0,0E0,0E0,0E0,0E0,0E0,0E0,0E0,0E0,0E0,0E0,0E0,0E0,0E0,0E0,0E0,0E0,0E0,0E0,0E0,0E0,0E0],"parents":[2147483647,0,0,1,1,2,2,3,3,4,4,5,5,6,6,7,7,8,8,9,9,10,10,11,11,12,12,13,13,14,14,15,15,16,16,17,17,18,18,19,19,20,20,21,21,22,22,23,23,24,24,25,25,26,26,27,27,28,28,29,29,30,30,31,31,32,32,33,33,34,34,35,35,36,36,37,37,38,38,39,39,40,40,41,41,42,42,43,43,44,44,45,45,46,46,47,47,48,48,49,49,50,50,51,51,52,52,53,53,54,54,55,55,56,56,57,57,58,58,59,59,60,60,61,61,62,62,63,63,64,64,65,65,66,66,67,67,68,68,69,69,70,70,71,71,72,72,73,73,74,74,75,75,76,76,77,77,78,78,79,79,80,80,81,81,82,82,83,83,84,84,85,85,86,86,87,87,88,88,89,89,90,90,91,91,92,92,93,93,94,94,96,96,98,98,99,99,100,100,101,101,103,103,104,104,105,105,106,106,107,107,108,108,109,109,110,110,111,111,112,112,113,113,114,114,115,115,116,116,117,117,118,118,119,119,120,120,121,121,122,122,123,123,124,124,125,125,126,126,127,127,128,128,129,129,130,130,131,131,132,132,133,133,134,134,135,135,136,136,139,139,140,140,141,141,142,142,143,143,144,144,145,145,146,146,147,147,148,148,149,149,150,150,151,151,152,152,153,153,154,154,155,155,156,156,157,157,158,158,159,159,160,160,161,161,162,162,163,163,164,164,165,165,166,166,167,167,168,168,169,169,170,170,171,171,172,172,173,173,174,174,175,175,176,176,177,177,178,178,179,179,180,180,181,181,182,182,183,183,184,184,185,185,186,186,187,187,188,188,189,189,190,190,191,191,192,192,196,196,197,197,198,198,199,199,200,200,201,201,202,202,203,203,204,204,205,205,206,206,207,207,208,208,209,209,210,210,211,211,212,212,213,213,214,214,215,215,216,216,217,217,218,218,219,219,220,220,221,221,222,222,226,226,227,227,228,228,229,229,230,230,231,231,232,232,233,233,234,234,235,235,236,236,237,237,238,238,239,239,240,240,241,241,242,242,243,243,244,244,245,245,246,246,247,247,248,248],"right_children":[2,4,6,8,10,12,14,16,18,20,22,24,26,28,30,32,34,36,38,40,42,44,46,48,50,52,54,56,58,60,62,64,66,68,70,72,74,76,78,80,82,84,86,88,90,92,94,96,98,100,102,104,106,108,110,112,114,116,118,120,122,124,126,128,130,132,134,136,138,140,142,144,146,148,150,152,154,156,158,160,162,164,166,168,170,172,174,176,178,180,182,184,186,188,190,-1,192,-1,194,196,198,200,-1,202,204,206,208,210,212,214,216,218,220,222,224,226,228,230,232,234,236,238,240,242,244,246,248,250,252,254,256,258,260,262,264,266,268,-1,-1,270,272,274,276,278,280,282,284,286,288,290,292,294,296,298,300,302,304,306,308,310,312,314,316,318,320,322,324,326,328,330,332,334,336,338,340,342,344,346,348,350,352,354,356,358,360,362,364,366,368,370,372,374,376,-1,-1,-1,378,380,382,384,386,388,390,392,394,396,398,400,402,404,406,408,410,412,414,416,418,420,422,424,426,428,430,-1,-1,-1,432,434,436,438,440,442,444,446,448,450,452,454,456,458,460,462,464,466,468,470,472,474,476,-1,-1,-1,-1,-1,-1,-1,-1,-1,-1,-1,-1,-1,-1,-1,-1,-1,-1,-1,-1,-1,-1,-1,-1,-1,-1,-1,-1,-1,-1,-1,-1,-1,-1,-1,-1,-1,-1,-1,-1,-1,-1,-1,-1,-1,-1,-1,-1,-1,-1,-1,-1,-1,-1,-1,-1,-1,-1,-1,-1,-1,-1,-1,-1,-1,-1,-1,-1,-1,-1,-1,-1,-1,-1,-1,-1,-1,-1,-1,-1,-1,-1,-1,-1,-1,-1,-1,-1,-1,-1,-1,-1,-1,-1,-1,-1,-1,-1,-1,-1,-1,-1,-1,-1,-1,-1,-1,-1,-1,-1,-1,-1,-1,-1,-1,-1,-1,-1,-1,-1,-1,-1,-1,-1,-1,-1,-1,-1,-1,-1,-1,-1,-1,-1,-1,-1,-1,-1,-1,-1,-1,-1,-1,-1,-1,-1,-1,-1,-1,-1,-1,-1,-1,-1,-1,-1,-1,-1,-1,-1,-1,-1,-1,-1,-1,-1,-1,-1,-1,-1,-1,-1,-1,-1,-1,-1,-1,-1,-1,-1,-1,-1,-1,-1,-1,-1,-1,-1,-1,-1,-1,-1,-1,-1,-1,-1,-1,-1,-1,-1,-1,-1,-1,-1,-1,-1,-1,-1,-1,-1,-1,-1,-1,-1,-1,-1,-1,-1,-1,-1,-1,-1,-1,-1,-1,-1,-1,-1],"split_conditions":[3E0,1.2E2,2E0,-1.8658435E-15,-7E0,4.2E1,3E0,-2.2167872E-14,4E0,7.88E2,1.1E1,1.1486916E-15,-4E0,9E0,-8.224208E-15,3.3E1,1.5722409E-14,8.1E1,9E0,3E0,1.1E1,5E0,2E0,1.827E3,-1.0629464E-14,2.48E2,4E0,8E0,1E1,7.632388E-15,1.5E1,-2E0,4.6E1,6.7E1,-1.3425889E-14,2E0,-8.0583055E-15,1E0,-3.4802683E-14,2.1E1,4.48E2,5E0,8.1E1,3E0,2E0,1.8E1,1.2E1,-2.9110405E-15,6E0,2.0522975E-15,1.6444013E-14,1.18E2,9E0,9E0,2E0,4E0,5E0,-3.2974292E-15,-8.943047E-15,-2E0,-1.0949512E-13,5E0,3.98E2,1.8E1,2.2E1,2E0,-2.7901179E-14,2.2E1,6.5E0,3.6E1,7.4E1,4.7E1,-1.3425889E-14,3.352393E-16,1.873E3,8E1,2E0,1.866E3,5.5E1,3.86E2,2.64E2,-2.3E1,3.8800966E-15,3E0,2E0,2E0,4.4E1,2E0,-1.5363681E-15,8E0,1.2E1,2E0,3.1E1,2.2349798E-14,4.12E2,-7.078733E-2,1.8E1,7.836187E-2,1.2E1,7E0,4.45E1,2E0,-1.5044984E-1,4.8251427E-15,3E0,1.984E3,5E0,5E0,1E1,4.5E1,2.9E1,2.6E1,1E0,3.1E1,1.6398579E-15,-5.6272766E-14,4.75E1,4E0,6.28E2,-3.8653285E-14,3.5E1,-2.176504E-13,1.15E2,8E0,9E1,1.87E2,8.6E2,7.3E1,-2.173702E-15,5.4E1,8.263595E-16,4.2E1,5.4E1,3.9E1,-8.499897E-17,7.1E1,-3.1604836E-15,-0E0,-1.12951115E-1,1.13E2,6.2E1,5.95E1,3E0,-3E0,5E0,-1.8E1,1.5186135E-14,4.964803E-15,9.1E1,-1.05E1,7E0,3E0,-8E0,3.4E1,6.4E1,2E0,3.5E1,7.3E1,1.5835562E-14,2E0,-1.7E1,-2E1,-1.4E1,7.4E1,9E0,-1.3E1,2E0,2.2E1,1.407E3,1.315E3,7E0,-4.9703237E-15,-1.0715777E-15,3.99E2,8.69601E-15,-2.7871456E-15,5.281194E-16,1.4236422E-14,2E0,3.1E1,8.04E2,7E0,5.84E2,9.6E1,1.6E1,3.1E1,1E1,9.3E1,-8.441561E-14,7.4E1,8.96E2,1.9E1,-5.6045266E-14,-1.2772171E-1,-1.3336121E-2,-4.2745046E-2,7.452903E-15,3.1E1,5.3E1,8.426731E-15,3.4834554E-15,8.4E1,1.1595569E-15,-8.499897E-17,2.6E1,9E0,4.05E1,9.1E1,-1.7E1,4.99E2,-3.402869E-14,1.2879938E-14,1.22E2,-1.8396876E-14,1.113E3,-1.5E1,3E0,8.6E1,-9.632595E-16,4.75E1,2.4142934E-14,8.61E2,4.3E1,-1.2833469E-1,4.5312453E-2,-1.7859794E-2,6.974556E-16,-9.771972E-15,3.5E0,5.2E1,9.927147E-15,-9.914251E-15,4E0,-1.7E1,8.276509E-15,-1.8868812E-13,8.2E1,8.2E1,9E0,5.4E1,9E0,6E0,7.326648E-14,5E0,1.3E1,1.05E1,2.8E1,8.4E1,1.3E1,8.509407E-2,-4.152456E-2,3.2595534E-2,1.2736185E-1,5.0971158E-2,-7.451796E-2,-2.0694323E-1,-3.573871E-2,7.352237E-2,-5.5700988E-2,1.4157662E-1,2.4371007E-2,-8.474711E-3,1.0752752E-1,6.795862E-2,-1.07884765E-1,-7.203428E-2,9.58065E-2,3.6634672E-2,1.2023711E-1,-1.4002873E-1,4.4224774E-3,-6.613669E-2,8.6419635E-2,-1.8019293E-1,-1.4050362E-2,-1.3133158E-1,1.233411E-1,1.08299576E-1,-8.3562315E-2,-1.023502E-1,1.1581496E-1,-2.366725E-2,9.0986155E-2,4.419592E-2,-1.6584119E-1,9.568347E-2,-8.6866446E-2,-1.3468816E-2,-1.4469157E-1,-0E0,-1.5179305E-1,-1.1921524E-1,-2.200798E-2,5.8377784E-2,1.2985143E-1,5.602026E-2,-1.1204895E-1,-3.829027E-2,-1.1063025E-1,2.7098874E-2,-5.1524043E-2,1.24401785E-1,9.953012E-2,3.8659524E-2,8.9488186E-2,1.0381448E-1,2.2692978E-2,5.0912913E-2,-4.8190154E-2,-6.1942644E-2,1.1082313E-2,-5.1074643E-2,-1.0873622E-1,2.0255601E-2,1.0969176E-1,2.3562806E-2,-4.4061985E-2,5.8395207E-2,-5.2685994E-3,4.9434155E-2,1.07780755E-1,6.887924E-2,4.2549726E-2,-3.2262657E-2,3.573257E-2,-1.0295693E-1,-6.685157E-2,-2.1337252E-2,-6.5857135E-2,8.256814E-3,-2.8599491E-2,-2.1429048E-3,3.7085123E-2,-1.946046E-2,5.9023168E-2,6.605701E-2,9.594658E-2,5.189708E-2,-6.455736E-3,2.0212073E-2,7.623168E-2,-1.430732E-1,-1.21625744E-1,-1.19779244E-1,-9.24113E-2,-6.713497E-2,-1.1373816E-1,-1.0396292E-1,-6.244905E-2,-7.5308554E-2,-3.9216865E-2,-1.4480124E-1,-6.589296E-2,-2.963141E-2,6.022306E-3,-1.2919478E-1,-1.9874593E-2,-3.9894693E-2,-1.1459167E-1,4.1293143E-3,-7.057317E-2,1.0075619E-2,-1.0426964E-1,3.1639695E-2,6.765851E-2,2.5451085E-2,-5.2374925E-2,-5.3682704E-2,5.8460888E-2,-1.219697E-1,3.783183E-2,-9.285549E-3,3.9302565E-2,1.23395525E-1,-8.493016E-3,-6.4137E-2,6.668707E-2,1.1464391E-1,8.5516804E-4,-6.978493E-2,1.0406575E-1,6.036259E-2,-2.9231483E-2,-7.820496E-2,8.2546264E-2,-1.21216945E-1,5.770463E-3,4.4582877E-2,-1.106054E-1,-1.16617225E-1,4.3279544E-2,-5.776192E-2,9.258068E-2,-1.6904296E-2,-6.851877E-2,-1.20981835E-1,-5.5353142E-2,-1.3774331E-1,-8.9925535E-2,-7.5538225E-2,5.040993E-2,-8.604728E-2,-1.2544458E-1,-1.0386503E-1,-6.0181543E-3,-1.7357739E-2,-1.7366832E-1,-3.8528267E-2,-8.820783E-2,6.216786E-2,-3.8252477E-2,3.8904812E-2,-1.1051998E-1,-8.57922E-2,-3.3213396E-2,9.91067E-3,-1.3647228E-1,-1.023001E-1,-1.2402635E-1,-4.7173772E-2,7.525658E-2,3.548227E-2,-1.2556244E-1,-7.780709E-2,-2.1408768E-3,4.1802414E-2,-6.506262E-2,1.1736305E-1,2.6063373E-2,-6.430407E-2,6.4051695E-2,-4.688231E-2,-1.8463647E-1,-1.2921947E-1,-6.560769E-2,3.038986E-2,-8.090342E-2,4.570717E-3,5.0984412E-2,-9.74054E-2,7.389503E-2,-1.4536405E-1,-4.626037E-2,2.2958409E-2,-5.961049E-3,7.6043986E-2,-8.580617E-2,4.0088024E-2,1.1537691E-1,6.991985E-2,-1.2686321E-1,9.587357E-2,-3.303667E-2,6.2089372E-2,-7.430291E-2,2.878859E-2,-7.380516E-2,-1.6310845E-1,-3.8092036E-2,-5.002146E-2,-1.2006115E-1,9.312072E-2,1.3142784E-1,-3.7166875E-2,8.746904E-2,1.1710385E-1,9.570839E-2,8.20921E-2,2.4403319E-2,-1.3161379E-1,-2.6114944E-2,-5.239789E-2,9.880427E-4,6.1333485E-2,-1.730445E-2,1.0273494E-1,6.0222E-2],"split_indices":[3,9,25,8,16,9,25,16,5,7,25,12,16,24,1,23,6,23,23,25,25,25,3,7,16,7,5,24,24,16,16,16,24,23,16,5,16,12,16,23,14,25,23,25,3,25,16,8,5,8,6,7,5,24,23,24,5,8,16,16,1,25,7,23,9,25,16,11,18,23,24,14,16,12,7,14,23,7,9,9,9,16,8,25,3,3,21,25,8,16,16,4,24,4,7,0,9,0,11,23,21,4,0,8,11,7,23,24,22,21,23,11,4,11,8,4,21,3,7,4,23,1,9,24,23,14,7,9,10,20,10,7,21,21,10,20,8,0,0,14,20,21,1,24,23,16,6,8,23,18,0,23,16,9,9,12,23,23,6,23,16,16,16,23,23,16,3,0,7,7,25,10,11,14,4,8,8,16,3,23,7,25,7,23,16,11,0,23,1,24,7,22,12,0,0,0,2,17,23,6,8,20,10,10,23,24,21,24,16,14,2,6,14,22,9,18,12,9,10,21,16,14,21,0,0,0,16,4,18,23,6,1,4,16,6,1,23,23,16,21,16,24,4,16,25,18,24,23,25,0,0,0,0,0,0,0,0,0,0,0,0,0,0,0,0,0,0,0,0,0,0,0,0,0,0,0,0,0,0,0,0,0,0,0,0,0,0,0,0,0,0,0,0,0,0,0,0,0,0,0,0,0,0,0,0,0,0,0,0,0,0,0,0,0,0,0,0,0,0,0,0,0,0,0,0,0,0,0,0,0,0,0,0,0,0,0,0,0,0,0,0,0,0,0,0,0,0,0,0,0,0,0,0,0,0,0,0,0,0,0,0,0,0,0,0,0,0,0,0,0,0,0,0,0,0,0,0,0,0,0,0,0,0,0,0,0,0,0,0,0,0,0,0,0,0,0,0,0,0,0,0,0,0,0,0,0,0,0,0,0,0,0,0,0,0,0,0,0,0,0,0,0,0,0,0,0,0,0,0,0,0,0,0,0,0,0,0,0,0,0,0,0,0,0,0,0,0,0,0,0,0,0,0,0,0,0,0,0,0,0,0,0,0,0,0,0,0,0,0,0,0,0,0,0,0,0,0],"split_type":[0,0,0,0,0,0,0,0,0,0,0,0,0,0,0,0,0,0,0,0,0,0,0,0,0,0,0,0,0,0,0,0,0,0,0,0,0,0,0,0,0,0,0,0,0,0,0,0,0,0,0,0,0,0,0,0,0,0,0,0,0,0,0,0,0,0,0,0,0,0,0,0,0,0,0,0,0,0,0,0,0,0,0,0,0,0,0,0,0,0,0,0,0,0,0,0,0,0,0,0,0,0,0,0,0,0,0,0,0,0,0,0,0,0,0,0,0,0,0,0,0,0,0,0,0,0,0,0,0,0,0,0,0,0,0,0,0,0,0,0,0,0,0,0,0,0,0,0,0,0,0,0,0,0,0,0,0,0,0,0,0,0,0,0,0,0,0,0,0,0,0,0,0,0,0,0,0,0,0,0,0,0,0,0,0,0,0,0,0,0,0,0,0,0,0,0,0,0,0,0,0,0,0,0,0,0,0,0,0,0,0,0,0,0,0,0,0,0,0,0,0,0,0,0,0,0,0,0,0,0,0,0,0,0,0,0,0,0,0,0,0,0,0,0,0,0,0,0,0,0,0,0,0,0,0,0,0,0,0,0,0,0,0,0,0,0,0,0,0,0,0,0,0,0,0,0,0,0,0,0,0,0,0,0,0,0,0,0,0,0,0,0,0,0,0,0,0,0,0,0,0,0,0,0,0,0,0,0,0,0,0,0,0,0,0,0,0,0,0,0,0,0,0,0,0,0,0,0,0,0,0,0,0,0,0,0,0,0,0,0,0,0,0,0,0,0,0,0,0,0,0,0,0,0,0,0,0,0,0,0,0,0,0,0,0,0,0,0,0,0,0,0,0,0,0,0,0,0,0,0,0,0,0,0,0,0,0,0,0,0,0,0,0,0,0,0,0,0,0,0,0,0,0,0,0,0,0,0,0,0,0,0,0,0,0,0,0,0,0,0,0,0,0,0,0,0,0,0,0,0,0,0,0,0,0,0,0,0,0,0,0,0,0,0,0,0,0,0,0,0,0,0,0,0,0,0,0,0,0,0,0,0,0,0,0,0,0,0,0,0,0,0,0,0,0,0,0],"sum_hessian":[1.5792555E5,1.2296206E5,3.496349E4,1.1568592E4,1.1139347E5,4.838429E3,3.0125059E4,6.262953E2,1.0942297E4,2.3159404E4,8.823407E4,1.6913509E2,4.669294E3,3.0040686E3,2.712099E4,1.7004953E2,4.5624576E2,1.9165154E3,9.025781E3,7.744655E3,1.5414749E4,8.0672805E4,7.5612603E3,6.1412663E1,1.0772242E2,1.5354026E3,3.1338916E3,4.324047E2,2.5716638E3,7.9496533E2,2.6326025E4,7.842698E1,9.162254E1,4.290852E1,4.1333725E2,1.4965016E3,4.2001376E2,7.316213E2,8.29416E3,5.0345544E2,7.241199E3,1.4077959E4,1.3367904E3,9.341984E3,7.133082E4,1.8834907E3,5.6777695E3,5.4097336E1,7.315324E0,6.575377E1,4.196866E1,1.8121828E2,1.3541843E3,2.8696112E2,2.8469304E3,1.6665233E2,2.6575235E2,7.901643E1,2.4926475E3,2.873286E2,5.076367E2,2.4716049E4,1.6099761E3,5.3596157E1,2.4830824E1,6.172116E1,2.9901382E1,4.0254086E1,2.654432E0,2.6483244E1,3.86854E2,2.7169156E2,1.22481E3,2.5821307E2,1.6180069E2,1.8151547E2,5.5010583E2,5.242796E3,3.051364E3,1.9900949E2,3.0444592E2,3.992635E3,3.2485642E3,1.5980419E3,1.2479917E4,1.0481473E3,2.886431E2,4.455148E3,4.886837E3,4.704373E4,2.428709E4,1.033723E3,8.497677E2,4.959508E3,7.1826135E2,1.1918942E0,5.290544E1,1.4390489E0,5.876275E0,1.5178257E1,5.057551E1,3.227513E1,9.693524E0,6.5943596E1,1.1527467E2,5.768821E2,7.773022E2,9.6656784E1,1.9030435E2,2.922208E2,2.5547097E3,8.783073E1,7.882161E1,2.6030847E2,5.4439E0,1.6226185E1,6.279025E1,1.3285038E3,1.1641437E3,2.1759381E2,6.97348E1,1.9973341E2,3.079033E2,4.996043E3,1.9720006E4,4.1358545E2,1.1963907E3,2.3531961E1,3.0064194E1,2.837981E0,2.1992844E1,3.7462204E0,5.797494E1,2.3522125E1,6.379257E0,8.571265E0,3.1682821E1,1.2022967E0,1.4521353E0,1.4934617E1,1.1548627E1,3.7962933E2,7.2246757E0,2.2502783E2,4.666373E1,8.256067E2,3.9920337E2,6.5813255E1,1.9239983E2,1.1958559E2,4.2215107E1,1.6361034E2,1.7905136E1,1.1641956E2,4.3368625E2,4.0369814E3,1.2058146E3,1.3547238E3,1.6966403E3,9.2949005E1,1.06060486E2,9.558528E1,2.0886066E2,7.67348E2,3.225287E3,3.0161296E3,2.324346E2,7.6012585E2,8.37916E2,8.400831E3,4.0790862E3,2.6439185E2,7.837555E2,1.4066936E2,1.4797374E2,2.5191777E3,1.9359701E3,1.3119115E3,3.5749255E3,3.8143258E4,8.900475E3,2.124209E4,3.045E3,4.019959E2,6.3172705E2,4.172298E2,4.325379E2,9.059515E2,4.0535564E3,1.3681854E2,5.814428E2,3.0177319E1,2.2728125E1,3.9247632E0,1.9515119E0,1.9522662E0,1.322599E1,2.8817926E1,2.1757582E1,8.457793E0,2.3817339E1,5.4456154E1,1.1487447E1,5.954458E0,1.0932021E2,3.7535605E2,2.0152605E2,1.1626361E2,6.610386E2,3.5456524E1,6.1200264E1,1.3889294E2,5.1411407E1,1.7025583E2,1.2196498E2,7.028728E2,1.8518368E3,8.2257744E1,5.5729804E0,6.04257E1,1.8395908E1,2.4976161E2,1.0546847E1,3.9970496E0,1.4468505E0,1.2471616E0,1.4979024E1,5.2623623E1,1.0166624E1,1.1237391E3,2.0476465E2,2.1192725E2,9.522164E2,1.1571056E1,2.0602275E2,2.969811E1,4.0036694E1,8.769499E1,1.1203842E2,1.7172725E2,1.3617603E2,8.4231744E2,4.1537256E3,1.9060385E4,6.596202E2,1.6029007E2,2.5329538E2,4.0501947E2,7.913712E2,1.3613264E1,9.918696E0,6.767635E0,2.329656E1,1.659616E0,1.178365E0,2.0320847E1,1.6719972E0,1.40131E0,2.3449104E0,5.3977303E1,3.9976397E0,1.6423018E0,2.1879824E1,3.309606E0,3.0696514E0,6.2190404E0,2.3522246E0,6.8535085E0,2.4829313E1,1.3199203E1,1.7354139E0,4.2861342E0,7.262492E0,3.7838135E2,1.2479864E0,4.2435694E0,2.9811068E0,2.6784962E1,1.9824286E2,1.4869939E0,4.5176735E1,1.10574684E2,7.15032E2,3.293427E2,6.986067E1,5.2510323E1,1.3302932E1,1.3660623E2,5.5793587E1,1.4978122E0,1.1808777E2,2.459457E1,1.7620539E1,5.8768826E1,1.04841515E2,9.191757E0,8.713379E0,3.473035E1,8.168922E1,2.4206313E2,1.9162312E2,2.5650413E3,1.4719403E3,2.964737E2,9.093409E2,1.2480413E3,1.06682594E2,1.4577736E3,2.3886671E2,4.7121117E1,4.582789E1,4.1096924E1,6.496357E1,2.9292152E1,6.629313E1,1.1737558E2,9.148508E1,6.003177E2,1.6703035E2,1.3197014E2,3.093317E3,1.860155E3,1.1559746E3,1.4544742E2,8.6987175E1,5.074438E2,2.5268204E2,3.3660678E2,5.0130923E2,2.7745566E3,5.626274E3,1.0209801E3,3.0581062E3,1.8685266E1,2.4570657E2,2.2024576E2,5.6350977E2,6.0985138E1,7.968423E1,5.50499E1,9.2923836E1,3.7765982E2,2.1415178E3,7.591124E2,1.1768577E3,3.384767E2,9.7343475E2,5.2624945E2,3.0486763E3,7.1037554E3,3.1039502E4,2.832531E3,6.067944E3,5.5306567E3,1.5711434E4,8.8960144E2,2.1553987E3,3.737916E2,2.820432E1,5.924506E2,3.9276443E1,3.9574716E2,2.1482641E1,2.5687448E2,1.7566342E2,8.275339E2,7.84176E1,4.0693977E1,4.0128625E3,1.2984264E2,6.9759016E0,1.7202368E2,4.0941916E2,2.8539959E1,1.6373583E0,2.1493235E0,2.0578802E1,7.2057157E0,6.0202746E0,2.6387432E1,2.4304957E0,1.3533542E1,8.224041E0,3.425227E0,5.032567E0,1.723468E1,6.5826583E0,5.199448E1,2.4616718E0,7.841684E0,3.645763E0,1.2429947E0,4.711464E0,4.1293003E1,6.802721E1,4.8825344E1,3.265307E2,4.309023E1,1.5843582E2,1.1203015E2,4.233456E0,1.0975375E2,5.5128485E2,1.5629468E1,1.9827055E1,1.247905E0,5.9952362E1,4.6190735E1,9.27022E1,6.675338E0,4.473607E1,2.4875586E0,1.6776826E2,8.1903435E1,4.006155E1,1.7490655E0,7.011237E2,5.491419E2,1.302695E3,5.717327E0,7.654041E1,1.2070811E0,4.365899E0,5.107237E1,9.353331E0,1.120377E1,7.192138E0,2.4016309E2,9.598529E0,3.8328729E0,6.713975E0,1.7466103E0,1.3232413E1,2.7200026E1,2.5423597E1,6.1874557E0,3.9791684E0,6.746936E2,4.4904553E2,4.323041E0,2.004416E2,3.351883E1,1.7840842E2,5.770169E2,3.7519943E2,1.2277086E0,1.0343348E1,2.1991045E1,1.8403171E2,9.924084E0,1.9774027E1,3.3487694E1,6.5489974E0,7.543191E1,1.22630825E1,3.978936E1,7.224906E1,1.68237E2,3.4902596E0,7.110155E1,6.5074486E1,2.3174744E2,6.1057E2,1.1519204E2,4.0385334E3,1.5609694E4,3.4506912E3,4.1953418E2,2.40086E2,1.4110846E2,1.9181606E1,1.5412338E2,9.917198E1,3.7202298E2,3.2996487E1,6.719538E2,1.1941743E2],"tree_param":{"num_deleted":"0","num_feature":"26","num_nodes":"477","size_leaf_vector":"1"}},{"base_weights":[3.5233642E-3,-1.6176276E-1,5.974589E-1,6.5378433E-1,-2.3031606E-1,-9.350635E-1,8.511589E-1,-8.321379E-2,7.715867E-1,2.0903969E-1,-3.4565043E-1,1.509659E-1,-9.6642125E-1,1.828593E-1,9.2720807E-1,3.2955882E-1,-6.982306E-1,9.078778E-1,4.850757E-1,6.6712725E-1,-1.7545067E-2,-4.0617734E-1,3.0710635E-1,7.8331727E-1,-1.9369228E-1,-1.03017E0,-6.792801E-1,5.93111E-1,1.1441712E-1,-2.0464878E-1,9.620648E-1,-1.2944964E-1,7.490304E-1,-1.57049E-1,-1.685924E0,2.1092471E-1,9.6483064E-1,6.432543E-1,-1.1265315E0,7.195058E-2,7.282275E-1,-6.236852E-1,5.2958995E-2,-8.626879E-1,-3.468723E-1,3.6911273E-1,-1.2399343E-1,9.207988E-1,-6.2224233E-1,-4.025555E-2,-1.186968E0,-7.8233254E-1,-1.0861208E0,1.19548015E-1,-7.2055304E-1,-1.8070774E-2,9.826985E-1,-1.0511761E0,1.4918348E-1,7.274891E-1,-6.9933236E-1,1.0084691E0,5.251624E-1,4.4391882E-1,-7.5194263E-1,8.835954E-1,-7.037409E-1,5.766142E-1,-7.6392937E-1,-7.326799E-3,-1.6955484E-1,8.443863E-1,-8.5403115E-2,1.086559E0,8.137994E-1,7.141186E-1,-1.7612779E-1,-2.2816697E-1,-1.572891E0,4.4249013E-1,-3.1083816E-1,2.3470683E-1,7.9088944E-1,-8.4269196E-1,-4.2144522E-1,-1.1241531E-1,3.403575E-1,-1.0414792E0,-6.9953126E-1,-4.8054585E-1,-8.638715E-2,1.00515075E-1,4.6006733E-1,-1.0686401E0,8.121175E-2,-1.1793157E-1,9.8170805E-1,-0E0,-9.278051E-2,-3.0232778E-1,2.9284692E-1,-1.344189E-1,-8.614709E-4,-1.1067158E0,-6.797134E-1,-7.721231E-1,-1.1227949E0,3.5663888E-1,-1.1306708E0,-6.127634E-1,-9.3069315E-1,4.4329092E-1,-5.0779146E-1,1.025924E0,-6.900032E-1,-1.0916495E0,2.1354243E-2,-2.0962748E-1,2.2137587E-1,9.0475184E-1,1.13367796E-1,-1.4342768E0,-2.6295978E-1,8.4608483E-1,1.049948E0,-6.7899084E-1,8.2212025E-1,-4.966332E-1,7.1606535E-1,5.125779E-1,-1.0174336E0,-6.5172565E-1,9.1429156E-1,-1.0046949E0,2.4538909E-1,-3.8614345E-1,7.657072E-1,-1.1977557E0,-3.089965E-1,1.0628247E0,3.1717062E-1,-6.969247E-1,9.336073E-2,6.236181E-1,1.1164671E0,8.36947E-1,-4.157921E-1,-5.330875E-1,7.555729E-1,4.9691994E-2,-7.86014E-1,-1.5797417E-1,4.806644E-1,-1.6724026E0,-8.9696445E-2,-3.565346E-1,6.564456E-1,-6.976609E-1,-5.1316753E-2,4.0095466E-1,-2.1870503E-1,1.0019816E0,6.021756E-1,-5.345993E-1,-9.269363E-1,-1.0413822E-1,-5.314507E-1,1.104829E-1,-2.2075245E-1,2.4490742E-1,7.380012E-1,-1.1309065E0,-9.233029E-1,-9.11076E-1,-6.1750317E-1,-4.019756E-1,-8.167326E-1,-3.2866547E-1,-7.884169E-4,-3.3168137E-1,1.8251787E-1,1.2990218E-1,5.259207E-1,-1.4330685E0,-7.92428E-1,-2.9620308E-1,2.1059395E-1,-4.5786988E-2,2.5011802E-2,1.0940486E0,3.0941418E-1,-2.7906602E-2,-1.0964429E0,5.7435375E-1,-4.494704E-1,-2.7913383E-1,-1.3359451E0,-4.6434805E-1,-8.266154E-1,-2.1434535E-1,-8.149331E-1,-1.4022797E0,-1.0931071E0,-3.154009E-2,6.3094866E-1,-1.2972057E-1,-1.1490238E-2,-8.4112875E-2,-6.9739133E-1,-1.5497813E-1,-8.727794E-1,6.93806E-1,-1.3395846E-1,-8.4218425E-1,-2.345963E-1,1.0644423E0,2.261753E-1,-1.0839378E0,4.3288436E-2,-1.2643664E0,-7.78764E-1,-7.827268E-1,-4.3361545E-2,4.8029906E-1,1.4650095E-1,-5.784335E-1,9.976592E-1,-7.2394586E-1,6.9965476E-1,-1.5806993E0,-1.0234035E0,-5.347165E-1,4.820334E-1,1.1355397E0,7.8662515E-1,1.0660716E0,5.2227753E-1,-1.1303233E0,-2.4398115E-1,4.4867063E-1,9.021165E-1,-1.3451925E-1,3.2958116E-2,3.4186255E-2,1.1706276E-1,-1.460402E-1,8.5293114E-2,-1.2274195E-1,1.1072218E-2,5.7033833E-2,-1.2095113E-1,7.792397E-3,9.74981E-2,-5.785228E-2,-1.6122283E-1,8.877611E-2,-5.953902E-2,9.479404E-2,-8.1287764E-2,8.0419146E-2,-7.148598E-2,-0E0,-1.3343923E-1,2.5690958E-2,-8.634562E-2,7.6281647E-3,1.1660116E-1,5.3931385E-2,-9.6430555E-2,-9.270443E-2,-2.9775297E-2,3.7948962E-2,-3.0211052E-2,8.6861715E-2,-1.7210573E-2,6.663768E-2,1.137424E-1,6.009549E-2,9.239083E-2,-1.2550531E-1,1.9103875E-2,1.7261634E-2,-1.0570921E-1,8.939072E-2,4.7519214E-2,-3.898378E-2,4.994571E-2,-9.64206E-2,9.782239E-4,-1.0064148E-2,7.8086175E-2,-1.7048584E-1,-1.3868664E-3,-1.4566927E-1,1.13077104E-1,-4.2632148E-2,5.539716E-2,-6.5003927E-3,7.7252254E-2,-1.0198816E-1,-4.076646E-2,2.0833373E-2,-3.793225E-2,2.0736322E-2,6.097853E-2,2.2327619E-2,-4.1325144E-2,7.538395E-2,1.0736847E-1,6.886027E-2,3.4199223E-2,-1.1412859E-1,-4.2347986E-2,-4.827843E-3,-9.591523E-2,8.532805E-3,-4.274778E-2,-1.950533E-2,-6.112137E-2,3.2019187E-2,-4.8954994E-3,3.7667178E-2,-2.5386348E-2,3.38342E-2,1.4463074E-3,5.2148055E-2,8.130031E-2,-6.815402E-2,-1.1447581E-1,-9.737623E-2,-5.8892198E-2,-1.2476086E-1,-8.078271E-2,-9.407877E-2,-5.5960845E-2,-7.083246E-2,-3.469795E-2,-1.3905814E-1,-6.0970973E-2,-2.6339686E-2,-7.833801E-2,1.3889258E-2,-1.9149391E-2,3.094523E-3,-4.7893424E-2,1.6947361E-3,3.7548047E-2,1.16777234E-1,7.70519E-3,4.34317E-2,6.755941E-2,-1.5100476E-1,-2.3277034E-4,-8.68051E-2,3.5618097E-2,-1.718751E-2,-8.995274E-2,3.287768E-2,-2.3249825E-2,-3.4420483E-3,1.1581057E-1,5.181442E-2,-3.906689E-2,-6.8543844E-2,2.5608812E-2,-3.6124394E-3,-1.2593517E-1,7.820359E-2,-5.5221017E-2,5.0779786E-2,-7.0000626E-2,-9.755643E-2,1.6991759E-3,2.0802004E-2,-1.3625523E-1,9.0511024E-2,-5.1061668E-2,-1.4918046E-1,-7.514288E-2,-5.0182134E-2,4.011886E-2,-8.7746985E-2,-4.3758813E-2,-0E0,-1.4210124E-1,-6.63309E-2,-1.12015486E-1,-2.738054E-2,7.929072E-2,8.3514385E-2,-5.316418E-2,1.6394274E-2,-7.6634504E-2,-6.042319E-2,-9.505995E-2,-1.0421411E-1,-6.822765E-2,-5.0081085E-2,7.87848E-2,3.2142464E-2,-8.385101E-2,5.1654078E-2,-1.0703508E-1,-3.7890352E-2,2.718114E-2,2.7734343E-2,1.0997789E-1,-6.995921E-2,7.145121E-2,-1.14735095E-2,-1.2814923E-1,-1.354849E-1,-2.8623609E-2,1.8817427E-2,-1.0894362E-1,-1.1391582E-1,1.8955452E-2,9.882535E-3,-4.217417E-2,-3.847429E-2,5.232001E-2,9.088545E-2,1.1148336E-2,-8.5036054E-2,6.404903E-2,1.1110981E-1,3.5568364E-2,8.1251E-2,-1.19394496E-1,9.554032E-2,-3.1291354E-2,-1.6019937E-1,-3.897621E-2,-1.1476662E-1,2.5926853E-2,-1.1409778E-2,-8.452524E-2,1.2458619E-2,1.0045307E-1,8.496708E-2,1.2398924E-1,-3.3519354E-2,8.201192E-2,1.07868314E-1,6.716223E-2,7.73814E-2,1.7053692E-2,-1.4772667E-1,-9.0714484E-2,-1.4027075E-1,-1.9556636E-2,7.5447075E-2,1.779597E-2,9.508436E-2,4.5821518E-2],"categories":[],"categories_nodes":[],"categories_segments":[],"categories_sizes":[],"default_left":[0,0,0,0,0,0,0,0,0,0,0,0,0,0,0,0,0,0,0,0,0,0,0,0,0,0,0,0,0,0,0,0,0,0,0,0,0,0,0,0,0,0,0,0,0,0,0,0,0,0,0,0,0,0,0,0,0,0,0,0,0,0,0,0,0,0,0,0,0,0,0,0,0,0,0,0,0,0,0,0,0,0,0,0,0,0,0,0,0,0,0,0,0,0,0,0,0,0,0,0,0,0,0,0,0,0,0,0,0,0,0,0,0,0,0,0,0,0,0,0,0,0,0,0,0,0,0,0,0,0,0,0,0,0,0,0,0,0,0,0,0,0,0,0,0,0,0,0,0,0,0,0,0,0,0,0,0,0,0,0,0,0,0,0,0,0,0,0,0,0,0,0,0,0,0,0,0,0,0,0,0,0,0,0,0,0,0,0,0,0,0,0,0,0,0,0,0,0,0,0,0,0,0,0,0,0,0,0,0,0,0,0,0,0,0,0,0,0,0,0,0,0,0,0,0,0,0,0,0,0,0,0,0,0,0,0,0,0,0,0,0,0,0,0,0,0,0,0,0,0,0,0,0,0,0,0,0,0,0,0,0,0,0,0,0,0,0,0,0,0,0,0,0,0,0,0,0,0,0,0,0,0,0,0,0,0,0,0,0,0,0,0,0,0,0,0,0,0,0,0,0,0,0,0,0,0,0,0,0,0,0,0,0,0,0,0,0,0,0,0,0,0,0,0,0,0,0,0,0,0,0,0,0,0,0,0,0,0,0,0,0,0,0,0,0,0,0,0,0,0,0,0,0,0,0,0,0,0,0,0,0,0,0,0,0,0,0,0,0,0,0,0,0,0,0,0,0,0,0,0,0,0,0,0,0,0,0,0,0,0,0,0,0,0,0,0,0,0,0,0,0,0,0,0,0,0,0,0,0,0,0,0,0,0,0,0,0,0,0,0,0,0,0,0,0,0,0,0,0,0,0,0,0,0,0,0,0,0,0,0,0,0,0,0,0,0,0,0,0,0,0,0,0,0,0],"id":3,"left_children":[1,3,5,7,9,11,13,15,17,19,21,23,25,27,29,31,33,35,37,39,41,43,45,47,49,51,53,55,57,59,61,63,65,67,69,71,73,75,77,79,81,83,85,87,89,91,93,95,97,99,101,103,105,107,109,111,113,115,117,119,121,123,125,127,129,131,133,135,137,-1,-1,139,141,143,145,147,149,151,153,155,157,159,161,163,165,167,169,171,173,175,177,179,181,183,185,187,189,-1,-1,191,193,-1,-1,195,197,199,201,203,205,207,209,211,213,215,217,219,-1,221,223,225,227,229,231,233,235,237,239,241,243,245,247,249,251,253,255,257,259,261,263,265,267,269,271,273,275,277,279,281,283,285,287,-1,289,291,293,295,297,299,301,303,305,307,309,311,313,315,317,319,321,323,325,327,329,331,333,335,337,339,341,343,345,347,349,351,353,355,357,-1,-1,359,361,363,365,367,369,371,373,375,377,379,381,383,385,387,389,-1,-1,391,393,-1,395,397,399,401,403,405,407,409,-1,411,413,415,417,419,421,423,425,427,429,431,433,435,437,439,441,443,445,447,449,451,453,-1,-1,-1,-1,-1,-1,-1,-1,-1,-1,-1,-1,-1,-1,-1,-1,-1,-1,-1,-1,-1,-1,-1,-1,-1,-1,-1,-1,-1,-1,-1,-1,-1,-1,-1,-1,-1,-1,-1,-1,-1,-1,-1,-1,-1,-1,-1,-1,-1,-1,-1,-1,-1,-1,-1,-1,-1,-1,-1,-1,-1,-1,-1,-1,-1,-1,-1,-1,-1,-1,-1,-1,-1,-1,-1,-1,-1,-1,-1,-1,-1,-1,-1,-1,-1,-1,-1,-1,-1,-1,-1,-1,-1,-1,-1,-1,-1,-1,-1,-1,-1,-1,-1,-1,-1,-1,-1,-1,-1,-1,-1,-1,-1,-1,-1,-1,-1,-1,-1,-1,-1,-1,-1,-1,-1,-1,-1,-1,-1,-1,-1,-1,-1,-1,-1,-1,-1,-1,-1,-1,-1,-1,-1,-1,-1,-1,-1,-1,-1,-1,-1,-1,-1,-1,-1,-1,-1,-1,-1,-1,-1,-1,-1,-1,-1,-1,-1,-1,-1,-1,-1,-1,-1,-1,-1,-1,-1,-1,-1,-1,-1,-1,-1,-1,-1,-1,-1,-1,-1,-1,-1,-1,-1,-1,-1,-1,-1,-1,-1,-1,-1,-1,-1,-1,-1,-1,-1,-1,-1,-1,-1,-1,-1,-1],"loss_changes":[1.5401546E4,6.8619385E3,1.3280761E4,8.264275E2,5.737124E3,1.6553076E2,1.4890156E3,3.3365024E2,3.196211E2,2.4435771E3,3.5432627E3,3.0224703E1,8.5103516E1,8.395215E1,1.0383906E3,1.516372E2,2.8154514E2,2.2021631E2,6.7621515E2,2.8316235E2,6.7327136E2,2.2212803E3,2.0352576E2,1.0330536E1,1.3523212E1,5.2007812E1,2.8591736E1,1.0198572E2,1.04280174E2,3.6374854E2,5.1654297E2,1.3498509E2,8.135144E1,1.5326503E2,2.533142E0,7.939261E1,9.294678E1,1.4034479E2,9.4401306E1,1.0335925E2,2.181128E2,7.204883E1,6.7079425E2,2.7394434E2,2.5290254E3,1.6243256E2,1.8591412E2,3.1181564E0,9.8579884E-1,7.0829306E0,2.0526485E0,2.2522766E1,3.468701E1,1.3418547E1,1.7552032E1,3.8281387E1,1.999472E1,4.2525635E0,6.4744385E1,2.9527512E1,1.6446523E2,1.5388086E2,8.783831E2,5.096842E1,6.168406E1,1.869394E1,1.0625345E1,2.8867622E1,3.645249E1,0E0,0E0,1.4872223E1,3.1722366E1,3.81062E1,6.6010254E1,1.1546692E2,2.6734491E1,7.8435135E1,2.293991E1,6.3676674E1,3.58526E1,6.032598E1,2.4864526E2,1.9520996E1,2.9756638E1,2.1637772E2,1.952865E2,4.5765625E1,8.4686035E1,1.2673018E3,5.108692E2,5.980976E1,1.0789319E2,1.5301102E1,3.8576195E1,6.6178817E-1,2.5937653E0,0E0,0E0,9.748E0,7.84853E0,0E0,0E0,3.1418976E1,1.6630981E1,7.6019135E0,2.0761475E1,4.111035E0,8.574219E-1,2.4276703E1,7.575165E0,1.2798708E1,7.110409E0,7.379425E0,4.052515E0,2.238945E0,0E0,3.9766457E1,4.0146454E1,3.0116333E1,3.174472E1,8.832764E0,6.62164E1,7.940332E1,1.5530664E2,9.49126E1,5.809082E1,3.231692E1,2.5349884E1,2.3553997E1,3.5938324E1,6.691121E0,1.8583374E1,5.4844284E0,6.063761E0,1.6233078E1,8.330719E0,1.5613663E1,2.9899265E1,9.361023E0,1.2619952E1,5.4908752E0,2.5597027E1,3.4596878E1,2.3827393E1,4.5343384E1,2.2574263E1,2.708131E1,8.2633545E1,2.842443E1,7.540474E0,0E0,9.600774E0,7.762146E0,2.1842049E1,5.365983E0,2.4655434E1,1.2655632E1,1.8555475E1,2.3371986E1,1.8643425E1,5.1203125E1,7.405786E1,1.07579E1,1.7244751E1,1.3728426E1,1.6793625E1,9.804151E1,1.1939703E2,8.951782E1,1.5419983E1,1.4540527E1,3.1822388E1,4.6099976E1,6.574841E1,6.551011E2,1.0785957E3,1.9045465E2,4.8500232E2,1.4437706E1,4.524857E1,4.519657E1,5.6249878E1,7.7487183E0,9.276253E0,1.4787724E1,3.092034E1,0E0,0E0,2.7787743E0,1.5386941E0,6.9197283E0,1.7958832E0,6.8945055E0,3.0813828E0,8.109885E0,5.970642E0,1.4967266E1,1.4276199E1,4.909925E0,6.5880127E0,6.9403687E0,2.8313965E1,3.6521626E0,6.0021963E0,0E0,0E0,1.332365E1,1.0083481E1,0E0,6.9791107E0,7.4894104E0,9.283211E0,1.212019E1,3.63745E0,6.1690674E0,6.9731817E0,7.865977E-1,0E0,3.1597977E0,9.383539E0,3.2974106E1,1.7649694E1,1.7590881E1,4.2872738E1,5.2732177E0,1.3831772E1,2.0747566E1,1.034285E1,2.369995E0,9.260616E0,3.098185E1,1.6058273E1,2.2007446E1,1.472395E2,8.74082E1,4.8177032E1,1.6188568E1,1.3432162E1,2.873185E1,3.425061E1,0E0,0E0,0E0,0E0,0E0,0E0,0E0,0E0,0E0,0E0,0E0,0E0,0E0,0E0,0E0,0E0,0E0,0E0,0E0,0E0,0E0,0E0,0E0,0E0,0E0,0E0,0E0,0E0,0E0,0E0,0E0,0E0,0E0,0E0,0E0,0E0,0E0,0E0,0E0,0E0,0E0,0E0,0E0,0E0,0E0,0E0,0E0,0E0,0E0,0E0,0E0,0E0,0E0,0E0,0E0,0E0,0E0,0E0,0E0,0E0,0E0,0E0,0E0,0E0,0E0,0E0,0E0,0E0,0E0,0E0,0E0,0E0,0E0,0E0,0E0,0E0,0E0,0E0,0E0,0E0,0E0,0E0,0E0,0E0,0E0,0E0,0E0,0E0,0E0,0E0,0E0,0E0,0E0,0E0,0E0,0E0,0E0,0E0,0E0,0E0,0E0,0E0,0E0,0E0,0E0,0E0,0E0,0E0,0E0,0E0,0E0,0E0,0E0,0E0,0E0,0E0,0E0,0E0,0E0,0E0,0E0,0E0,0E0,0E0,0E0,0E0,0E0,0E0,0E0,0E0,0E0,0E0,0E0,0E0,0E0,0E0,0E0,0E0,0E0,0E0,0E0,0E0,0E0,0E0,0E0,0E0,0E0,0E0,0E0,0E0,0E0,0E0,0E0,0E0,0E0,0E0,0E0,0E0,0E0,0E0,0E0,0E0,0E0,0E0,0E0,0E0,0E0,0E0,0E0,0E0,0E0,0E0,0E0,0E0,0E0,0E0,0E0,0E0,0E0,0E0,0E0,0E0,0E0,0E0,0E0,0E0,0E0,0E0,0E0,0E0,0E0,0E0,0E0,0E0,0E0,0E0,0E0,0E0,0E0,0E0,0E0,0E0,0E0,0E0,0E0,0E0,0E0,0E0,0E0,0E0,0E0,0E0,0E0,0E0],"parents":[2147483647,0,0,1,1,2,2,3,3,4,4,5,5,6,6,7,7,8,8,9,9,10,10,11,11,12,12,13,13,14,14,15,15,16,16,17,17,18,18,19,19,20,20,21,21,22,22,23,23,24,24,25,25,26,26,27,27,28,28,29,29,30,30,31,31,32,32,33,33,34,34,35,35,36,36,37,37,38,38,39,39,40,40,41,41,42,42,43,43,44,44,45,45,46,46,47,47,48,48,49,49,50,50,51,51,52,52,53,53,54,54,55,55,56,56,57,57,58,58,59,59,60,60,61,61,62,62,63,63,64,64,65,65,66,66,67,67,68,68,71,71,72,72,73,73,74,74,75,75,76,76,77,77,78,78,79,79,80,80,81,81,82,82,83,83,84,84,85,85,86,86,87,87,88,88,89,89,90,90,91,91,92,92,93,93,94,94,95,95,96,96,99,99,100,100,103,103,104,104,105,105,106,106,107,107,108,108,109,109,110,110,111,111,112,112,113,113,114,114,115,115,117,117,118,118,119,119,120,120,121,121,122,122,123,123,124,124,125,125,126,126,127,127,128,128,129,129,130,130,131,131,132,132,133,133,134,134,135,135,136,136,137,137,138,138,139,139,140,140,141,141,142,142,143,143,144,144,145,145,146,146,147,147,148,148,149,149,150,150,152,152,153,153,154,154,155,155,156,156,157,157,158,158,159,159,160,160,161,161,162,162,163,163,164,164,165,165,166,166,167,167,168,168,169,169,170,170,171,171,172,172,173,173,174,174,175,175,176,176,177,177,178,178,179,179,180,180,181,181,182,182,183,183,184,184,185,185,186,186,189,189,190,190,191,191,192,192,193,193,194,194,195,